embedding/embeddings:0
(26, 4)
[[ 0.27082857 -0.24193165  0.32520872  0.04330919]
 [-0.08586989  0.37772122  0.39190763  0.34887424]
 [-0.12704423 -0.38264176 -0.22691344  0.22336356]
 [ 0.1338623   0.5624882  -0.5929359  -0.31384853]
 [-0.22114997 -0.27254933  0.40052256  0.02841357]
 [-0.46829945 -0.67675495 -0.46156627 -0.48122758]
 [ 0.4452476  -0.5348476  -0.07279161 -0.2885211 ]
 [-0.38375056  0.49777743 -0.5762699  -0.26837692]
 [-0.25571343  0.48466182 -0.24137841  0.71236306]
 [-0.7580356   0.62178236  0.6799874   0.56868744]
 [-0.30541205  0.24393448 -0.1531332   0.6134594 ]
 [ 0.838229   -0.46860158 -0.55241424 -0.33232412]
 [-0.46373096 -0.39349556 -0.5370314  -0.24323905]
 [ 0.26088107 -0.07225746 -0.33331004  0.13055037]
 [-0.291475   -0.924348   -0.54152316 -0.6918464 ]
 [ 0.28258514 -0.06750607 -0.45558187  0.61450434]
 [-0.07101389  0.588826    0.35354412 -0.35661337]
 [-0.6229501   0.14510737 -0.44353926  0.321154  ]
 [ 0.41624457 -0.51039755  0.44059694  0.2690173 ]
 [-0.19742422 -0.32237568  0.23247434 -0.35535863]
 [ 0.5316546  -0.14102319  0.7903533  -0.59471035]
 [ 0.6893842   0.01600294  0.5026009   0.6125914 ]
 [-0.5944786   0.83540034  0.28246507  0.25111595]
 [ 0.9331973   0.05992635  0.1621715   0.5659192 ]
 [ 0.27252865 -0.6013637   0.59287554 -0.22893919]
 [-0.04147027 -0.04894673 -0.02032217 -0.01354878]]
simple_rnn/simple_rnn_cell/kernel:0
(4, 10)
[[ 0.8126666   0.73920244 -0.82552    -0.9669323  -1.081914    1.1612587
   0.02245674  0.948376   -0.8573212  -0.46532187]
 [-1.0788869  -0.7394913  -0.7441369  -0.32400605  1.3641852  -0.31278566
  -0.7024094   1.2354978   0.769848    0.97982854]
 [ 0.80224097 -1.2554175  -1.2025619  -0.6884495   0.84214145  0.48976207
  -0.52750003 -0.770044   -0.9538585   0.33397484]
 [-0.68158895 -1.359946   -1.2458702   0.05609856 -1.0895826   0.8298811
  -0.52582914  0.45841086  0.7887048   0.9422405 ]]
simple_rnn/simple_rnn_cell/recurrent_kernel:0
(10, 10)
[[-0.09245023  1.1409824  -0.462068    0.54313266  0.7603284   1.1357046
   0.9808698  -0.78409356  1.1723143   1.1579634 ]
 [ 0.51314986  0.6438848  -0.86197424  1.0670213   0.28638434 -0.77908194
  -1.1911324  -0.43893632  1.2259952   0.5411532 ]
 [ 0.678305    1.3563814  -0.6770914  -0.1276035   0.23077251  0.90565807
   1.1027547   1.0933315  -1.0073038  -0.9530521 ]
 [-0.76610684  0.68511254 -1.1526704  -1.1054335  -1.3232198   0.507614
   1.10424    -1.4733841   0.5435801   0.8877549 ]
 [ 0.5375309  -0.82739717 -0.85446453  0.9800848  -0.92394286  0.98088264
   0.8105856   0.8774152   0.20073563  1.0380831 ]
 [-1.034094   -0.86933815  0.13554832 -1.0839074   0.4548885   0.79543805
  -0.79440534 -0.3382739   1.0091096  -1.408838  ]
 [ 1.3854166   1.0179259  -1.4403352  -0.5520772   0.8380219  -0.21411301
  -0.7629256  -1.0404327  -0.49387524 -0.55703557]
 [ 0.42471442  0.14507177  0.17313789 -0.50300986  0.5420984   1.4743813
  -0.61661446 -1.3460022  -0.19915803 -0.8699715 ]
 [-1.442386    0.3623239  -0.7167188  -0.7400821  -0.7547445  -1.2083608
  -0.11584157  0.23527618 -0.93960387  0.19556077]
 [-0.48138916 -0.0119739   0.1998665  -1.4444414  -0.9583071  -0.73988897
  -1.1375879   0.667088   -0.11303441  0.7330764 ]]
simple_rnn/simple_rnn_cell/bias:0
(10,)
[ 0.24696101 -0.14818148 -0.3868748   0.09092028  0.11966008  0.12798044
  0.33128953  0.11894803  0.11305378  0.0899946 ]
dense/kernel:0
(10, 26)
[[-1.7702737e-01 -6.6403741e-01 -6.2178546e-01 -6.4891016e-01
   1.4030722e+00  8.9726675e-01 -1.4661673e-01  1.0988566e+00
   1.0246438e+00 -1.0626594e+00 -7.8553736e-01 -9.4382370e-01
   5.3797990e-01  4.1728973e-01  1.5045694e+00 -1.4022878e+00
  -1.5768189e+00 -1.3532329e+00 -4.5211780e-01  1.2963687e+00
   9.4948304e-01  8.7812364e-01  7.4884856e-01 -8.8914376e-01
  -1.0287693e+00  1.0045063e+00]
 [-1.9708820e-01 -4.0989146e-01 -5.3753190e-02 -1.5003832e-01
   1.2574754e+00 -1.3197409e+00  8.4549016e-01  1.0257982e+00
   1.6535758e+00 -1.4938940e+00 -1.4574472e+00 -1.0336479e+00
   1.1698891e+00  1.2794636e+00  6.7362851e-01  1.7755868e+00
   2.0549023e+00  1.6386230e+00 -1.0860094e+00  7.8206736e-01
  -1.5839113e+00  1.1556804e+00 -1.4300127e+00 -8.1263250e-01
  -1.3400824e+00 -1.2662358e+00]
 [-3.2990018e-01 -5.1887327e-01 -5.1191992e-01 -3.4004316e-01
   9.6251988e-01  8.0495173e-01  1.6078632e+00 -8.5739189e-01
   5.2195036e-01 -2.1909742e+00 -1.1614660e+00  6.9438171e-01
   1.5545717e+00  1.1251539e+00 -1.7237905e+00  1.1603731e-01
  -1.1121620e+00 -1.5010829e+00  2.2885303e+00 -1.0283899e+00
   1.0361197e+00 -9.7821605e-01 -1.5855783e+00  1.6217706e+00
   5.1115954e-01  1.6115813e+00]
 [-1.4166917e-01  2.3034291e-02  8.8023745e-02  9.8986410e-02
  -1.3163345e+00  1.2257280e+00 -5.2637633e-02 -1.3133068e+00
   1.3287677e+00  9.8295116e-01 -6.9690812e-01  1.2405261e+00
  -1.1277409e+00  9.0504873e-01  9.6606958e-01 -7.9951030e-01
   1.0841224e+00 -1.2021803e+00  1.8074301e+00 -1.0541201e+00
   1.3932853e+00  1.8208209e+00 -1.2112250e+00 -2.2035003e+00
  -1.1127855e+00 -1.4212341e+00]
 [ 2.2760952e-01  2.3227565e-01  4.9806187e-01  1.9030306e-01
   1.2973175e+00  1.2605984e+00 -1.7734708e+00 -8.6104947e-01
   7.5426424e-01 -8.0158126e-01 -5.5088311e-01 -8.5749662e-01
  -1.5998331e+00  1.2634811e+00 -7.0072934e-02 -1.3561310e+00
  -8.4019017e-01  1.3901243e+00 -1.5036799e+00 -1.1032369e+00
   7.5351125e-01 -1.0234610e+00  8.4039384e-01 -3.4990508e-02
  -1.0356500e+00  1.0253553e+00]
 [ 3.5016602e-01  5.6029665e-01  5.6986183e-01  7.1477377e-01
  -9.0245640e-01  1.0357070e+00  7.0198780e-01 -1.5178866e+00
  -7.1526337e-01 -1.0769590e+00 -9.2849082e-01 -1.2357906e+00
   1.4464599e+00  1.1466961e+00  1.4388480e+00 -9.6572149e-01
  -9.8129123e-01 -6.0131484e-01 -2.8101411e-01  1.0901636e+00
  -9.4113696e-01  1.4720116e+00  1.2107472e+00 -3.0733323e-01
  -9.4398040e-01  1.1029325e+00]
 [ 4.1726372e-01  5.4725337e-01  1.8764362e-01  1.6569047e-01
  -1.3150401e+00  1.3730428e+00  1.3236490e+00  1.3549798e+00
  -1.4065763e+00 -4.0964633e-01 -8.4702975e-01  1.9962318e+00
   1.1576815e+00  1.6961334e+00  1.0833074e+00 -9.9210447e-01
   1.8356439e+00 -7.9086459e-01 -1.7926193e+00  1.0973505e+00
  -1.1121508e+00  7.7892202e-01 -1.0913842e+00 -9.5865875e-01
  -6.6608477e-01 -1.2363042e+00]
 [ 3.1684041e-01  1.1975596e-01  3.8894227e-01  6.5428585e-02
   8.7954021e-01  1.2986318e+00 -1.4914225e+00  7.9171187e-01
  -9.7815418e-01  1.1225754e+00 -1.5046487e+00  6.5013826e-01
   1.7550211e+00 -1.2473511e+00 -1.8350524e+00 -1.3593075e+00
   1.0133178e+00 -9.7880846e-01  7.5437808e-01 -1.7197812e+00
  -7.4456483e-01  1.2339951e+00 -1.0547608e+00  6.4896369e-01
   1.0711627e+00 -1.5949113e+00]
 [ 4.5469186e-01  4.3283892e-01  3.0210263e-01  1.0414969e-01
  -1.1510419e+00 -1.1124195e+00  1.1144929e+00 -1.3683541e+00
   1.0582160e+00  1.4164126e+00 -1.3781538e+00 -1.8093268e+00
  -9.3177325e-01  1.5475383e+00  1.5846372e+00  2.1746634e-03
   1.3592837e+00  1.4397765e+00  1.7083855e-01 -9.3636894e-01
   1.0009346e+00 -1.3542356e+00  1.3434820e+00  1.8063227e+00
  -1.0965644e+00 -1.6247454e+00]
 [-3.6046222e-01 -6.6044140e-01 -4.5016894e-01 -2.3243293e-01
  -9.2444992e-01 -7.4989223e-01  1.7221745e+00  1.2625816e+00
   1.2646903e+00  7.4469441e-01  1.5731460e+00  1.0834979e+00
  -6.1685163e-01 -1.5210077e+00  1.5457426e+00 -9.4981855e-01
   4.4303480e-01  1.3378162e+00  1.0858579e+00 -1.2067308e+00
  -1.3084922e+00  1.1417177e+00 -5.9993291e-01  1.2670436e+00
  -1.6627194e+00 -4.3654945e-01]]
dense/bias:0
(26,)
[-0.4283776  -0.42658624 -0.42287865 -0.42450365 -0.00449795  0.6008927
  0.95935535  0.34836978  0.6026982  -0.13531521  0.45080408  0.36281213
  0.14932188 -0.02167039  0.06467381  0.73760694  0.3076782   0.0112799
 -0.04080898  0.38350594  0.44814804  0.4248426   0.66089594  0.26170385
  0.33468527 -0.2243915 ]
