baseline/conv2d/kernel:0
(5, 5, 3, 6)
[[[[ 2.85778373e-01 -8.30501467e-02 -2.43090242e-01 -3.54065076e-02
    -4.73748334e-02 -7.75384009e-02]
   [ 1.08790599e-01 -2.10790589e-01  1.43174648e-01  1.96446210e-01
    -1.38246298e-01 -5.86679056e-02]
   [-6.45574853e-02  2.96331495e-01 -6.69258460e-02  5.91980340e-03
     1.14335313e-01  8.39266367e-03]]

  [[ 1.39045510e-02 -1.60451204e-01 -3.46486159e-02 -2.90510282e-02
    -7.67605081e-02 -2.07211569e-01]
   [ 1.00602761e-01 -1.46377951e-01 -3.02805435e-02 -3.49218957e-02
     3.58118378e-02 -2.03823194e-01]
   [ 4.84105796e-02  4.31652516e-01  5.62730059e-03  2.36666530e-01
     8.29003379e-02 -3.59699838e-02]]

  [[ 9.58990082e-02  1.81527864e-02  2.08912730e-01 -1.26456976e-01
     9.06789824e-02  1.34864539e-01]
   [ 1.61829874e-01  5.38777560e-02  4.41769846e-02 -2.67764986e-01
    -1.20075494e-01  3.08338642e-01]
   [ 1.43582821e-01 -7.32184947e-02  1.04191944e-01  1.69855617e-02
     1.18801765e-01  3.35190207e-01]]

  [[ 1.33955143e-02 -7.28550181e-02  3.21982741e-01 -3.90666677e-03
     2.61233989e-02 -3.27835381e-02]
   [-4.51271906e-02  2.64603615e-01  9.25572738e-02 -8.55184570e-02
    -9.55456793e-02  1.33060709e-01]
   [ 1.62137374e-01 -7.44084641e-02  1.27377538e-02 -7.96410367e-02
     9.27842855e-02  2.00631514e-01]]

  [[ 2.19748750e-01 -5.54448366e-02 -6.21563289e-03  3.79346758e-01
     1.43168643e-01  1.88180611e-01]
   [ 4.85975370e-02  2.11641397e-02 -1.21733680e-01 -1.11476675e-01
    -1.36792064e-01  3.20523381e-01]
   [ 3.10033597e-02 -3.92506272e-03 -4.15885150e-02 -1.71859100e-01
     3.16694453e-02  2.93279260e-01]]]


 [[[ 8.54144320e-02 -2.02501938e-01 -5.72181158e-02 -1.09195434e-01
    -1.93838969e-01  4.70062830e-02]
   [ 1.28549021e-02 -3.28988910e-01  1.85744539e-01  5.08717373e-02
    -2.45019626e-02 -6.07695393e-02]
   [ 3.08527742e-02  3.24118584e-01 -2.40788907e-01  9.61825028e-02
     1.54038608e-01  2.34166220e-01]]

  [[-1.39531761e-01  5.44315553e-05  9.89455953e-02  1.06599398e-01
    -2.10965484e-01  8.31153803e-03]
   [ 2.41225176e-02 -2.47710690e-01  1.73660710e-01 -9.37290303e-03
    -6.63788095e-02 -1.92362696e-01]
   [ 6.98789135e-02  1.41373381e-01  1.66013494e-01  2.48438507e-01
     4.98452872e-01 -4.46913652e-02]]

  [[-2.40673974e-01  9.53895226e-03  2.43629813e-01  1.41954884e-01
    -2.00797111e-01 -3.31130475e-01]
   [ 1.86264664e-02 -3.51205170e-02  3.14290643e-01  1.91240430e-01
    -4.17336449e-02 -2.86937684e-01]
   [ 1.31968305e-01 -3.57458298e-03 -6.62611946e-02  1.47322975e-02
     4.61390555e-01 -1.05013490e-01]]

  [[-1.77486911e-01 -1.74537916e-02 -1.69018269e-01 -1.12519160e-01
    -1.90628335e-01 -1.25680596e-01]
   [-1.88466862e-01  4.04756702e-02 -2.99479812e-01 -3.72653306e-01
    -3.24303731e-02 -1.22323059e-01]
   [ 1.71707034e-01  6.75207563e-03 -1.41889416e-02 -1.60642847e-01
     4.29105133e-01 -2.52366643e-02]]

  [[-1.08290769e-01 -1.77413419e-01 -6.12952262e-02  9.08312667e-03
    -7.81533718e-02 -1.12352937e-01]
   [-3.53836862e-04  4.93743196e-02 -2.55822003e-01 -1.10506371e-01
    -8.82171690e-02 -2.27936029e-01]
   [-7.74795637e-02  2.48350427e-02 -1.43092111e-01 -1.84645936e-01
     8.95488784e-02 -7.95366988e-02]]]


 [[[-2.05718428e-01  6.87543973e-02  1.60495743e-01 -1.00748852e-01
    -1.06635474e-01  1.43441707e-01]
   [-2.15028733e-01 -2.40724340e-01  2.09430665e-01  5.78107424e-02
    -2.93190405e-02 -6.33673444e-02]
   [-9.54298452e-02  2.65817672e-01  1.19299509e-01 -5.46141751e-02
     2.50376493e-01 -3.56311351e-02]]

  [[-5.54294646e-01  2.20545202e-01  3.80774923e-02 -6.31093010e-02
    -1.00708500e-01 -1.32345706e-01]
   [-6.02811240e-02 -3.26703191e-01  3.93800914e-01  3.24608237e-01
     3.38322744e-02 -7.28146806e-02]
   [ 8.97430175e-04  5.72839938e-02  1.25918239e-01  8.52895156e-02
     2.88358122e-01 -1.10458426e-01]]

  [[-4.34790254e-01  3.04808468e-01 -1.41367927e-01  2.72949666e-01
    -3.65335524e-01 -2.67242253e-01]
   [-7.48702064e-02 -4.59794328e-02 -2.08094805e-01  2.06466287e-01
     1.37692600e-01 -3.29709873e-02]
   [ 2.08377689e-01 -2.28689268e-01 -2.78260052e-01  2.27696955e-01
     4.82177168e-01 -2.80621916e-01]]

  [[-4.56659108e-01  3.24941963e-01 -2.47935563e-01  4.30025645e-02
    -2.25968748e-01 -2.66034037e-01]
   [-1.12688899e-01 -4.92329383e-03 -2.96858519e-01 -1.78763002e-01
     1.00489996e-01 -1.47583604e-01]
   [ 1.95231810e-01 -2.17191070e-01 -2.61794955e-01 -7.92311206e-02
     2.79276460e-01 -4.56059903e-01]]

  [[-4.65236455e-01  7.27869011e-03 -1.11924611e-01 -1.97640955e-01
     1.51864678e-01 -8.98198038e-02]
   [-2.27888644e-01  7.72700533e-02  1.66764334e-01 -3.11939240e-01
    -4.98371606e-04 -3.20536047e-01]
   [ 1.29199311e-01 -2.07159922e-01 -6.74993619e-02 -4.66808826e-01
    -6.48786426e-02 -1.84581056e-01]]]


 [[[ 8.15578029e-02  6.96419701e-02  3.04924458e-01 -3.07184547e-01
     2.05603316e-01  2.33421966e-01]
   [-1.30528986e-01 -3.48829895e-01  3.95610221e-02  8.10547397e-02
    -1.06939204e-01  2.19026536e-01]
   [ 1.51333749e-01  1.67466924e-01  1.38832062e-01  1.05574228e-01
    -1.92458853e-01 -3.03171072e-02]]

  [[-1.90396115e-01  2.11607933e-01 -1.08498834e-01  1.16921201e-01
     1.89956486e-01  2.40361154e-01]
   [ 2.94662230e-02 -4.15726990e-01 -4.17016029e-01  3.25176828e-02
     2.40042787e-02  2.54715502e-01]
   [ 1.86101645e-01 -4.77266274e-02 -2.92194903e-01  1.74782842e-01
    -1.60780951e-01  1.07304856e-01]]

  [[-1.57443643e-01  3.58708143e-01 -2.47722268e-01  2.29794204e-01
     7.86610246e-02  2.50596970e-01]
   [ 1.02820192e-02 -3.19363736e-02 -3.79238427e-01  3.46666038e-01
     1.38930932e-01  5.67725420e-01]
   [ 3.33415657e-01 -3.54547441e-01 -1.90819174e-01  2.39056647e-01
    -1.69623807e-01  1.02309003e-01]]

  [[-3.25908035e-01  3.60773504e-01  8.29482153e-02  1.43943533e-01
     8.04727748e-02  3.53084654e-01]
   [ 6.65656403e-02 -4.65854481e-02 -1.35628074e-01 -3.01901326e-02
    -8.22248030e-03  2.03267053e-01]
   [ 2.26753712e-01 -2.00536221e-01 -7.06781372e-02  1.58301145e-01
    -7.34867062e-04  2.20495582e-01]]

  [[-1.82485148e-01  1.14358887e-01  7.78727680e-02 -1.75958723e-01
     1.91549182e-01  7.45417550e-02]
   [-4.38862070e-02 -1.57665685e-02 -2.02830955e-02 -2.97890693e-01
    -7.75489956e-02  4.72887158e-02]
   [ 3.50201279e-01 -1.87091351e-01  5.13827384e-01 -4.78874475e-01
    -1.92346573e-01 -6.35607988e-02]]]


 [[[ 2.91636527e-01 -9.51788872e-02 -2.55515337e-01 -1.76042527e-01
     3.19190532e-01 -2.00723633e-01]
   [-8.93790945e-02 -9.19040218e-02 -2.09581420e-01  4.02810909e-02
    -2.04890370e-01  1.30158300e-02]
   [-4.43745777e-02  2.75602877e-01 -1.74930766e-01  4.45240289e-02
    -3.08097363e-01  2.55109407e-02]]

  [[-4.15285453e-02  5.97839095e-02 -1.19160287e-01  4.46814019e-03
     3.83278579e-01 -1.01140581e-01]
   [-1.09796509e-01 -2.66842425e-01 -2.72586793e-01  6.12903275e-02
    -7.31797218e-02 -1.64859325e-01]
   [ 3.53414379e-02  7.84696415e-02 -1.62340298e-01 -2.28908118e-02
    -3.49819064e-01 -1.04888370e-02]]

  [[ 9.35868174e-02 -3.02863847e-02  1.31130475e-03  1.64105639e-01
     2.22204253e-01  1.19484790e-01]
   [ 3.83248404e-02  1.77497491e-01  2.83296525e-01  3.31492699e-03
    -1.49715170e-01 -8.10674727e-02]
   [ 1.98022246e-01 -7.55826756e-02  1.40684217e-01  1.66228712e-01
    -1.09789521e-01 -1.44738376e-01]]

  [[-2.57982790e-01  2.68136989e-02  1.56927869e-01  9.62432250e-02
     1.03071824e-01 -4.16722568e-03]
   [ 5.84124960e-02  1.71462178e-01  1.56781003e-01 -1.05207585e-01
     2.30273092e-03  1.42925575e-01]
   [ 2.43781120e-01 -5.65764531e-02  1.92580163e-01  2.02853441e-01
    -1.71278238e-01 -3.67258750e-02]]

  [[-1.35239199e-01 -2.52008855e-01  1.31129876e-01 -1.09676436e-01
     1.16584890e-01 -4.64634635e-02]
   [-8.44808072e-02  4.91948389e-02 -7.36600682e-02 -4.25892234e-01
     6.75645769e-02 -1.44405961e-01]
   [ 2.44743034e-01  6.32359236e-02  3.00224274e-01 -2.82461852e-01
    -3.27516973e-01  1.60460055e-01]]]]
baseline/conv2d/bias:0
(6,)
[-0.11023102 -0.13314597  0.08390815  0.08666096 -0.22748852 -0.0251289 ]
baseline/batch_normalization/gamma:0
(6,)
[0.474704   0.5410721  0.79297805 0.817694   0.47528115 0.83358425]
baseline/batch_normalization/beta:0
(6,)
[-0.00724578 -0.42119348 -0.52440774 -0.13512139 -0.11146652 -0.40674   ]
baseline/dense/kernel:0
(1536, 128)
[[-2.03895047e-02  5.43888845e-03  8.15975666e-02 -5.36112972e-02
  -2.56602485e-02 -1.22264912e-02 -2.98917596e-03  1.00882938e-02
  -3.70698273e-02 -7.25444183e-02 -9.65803564e-02  3.03627603e-04
   2.05680775e-03 -1.26088530e-01  5.02503365e-02  1.95527636e-02
  -4.57412191e-03  2.65811477e-02 -5.89911826e-02 -4.85356636e-02
  -9.41832662e-02  4.24396992e-02  1.54931501e-01 -5.46476617e-02
   1.44210383e-02  2.04142407e-02 -1.27006564e-02 -4.13681455e-02
  -6.45292178e-02 -1.44235240e-02 -2.54991371e-02 -1.87294818e-02
  -1.47683066e-04  5.13145840e-03  6.81703538e-03 -6.86881542e-02
  -3.21513787e-02 -7.52700269e-02 -6.72001392e-02 -5.91205582e-02
  -1.43378060e-02 -8.91079381e-02  1.96520854e-02  2.71108355e-02
  -9.91435070e-03  8.33155774e-03 -8.07465240e-02  1.86187658e-03
  -3.34294076e-04 -4.40909527e-02 -2.63320822e-02  1.34060746e-02
  -2.27829404e-02 -3.81031446e-02 -8.73818696e-02  2.69818902e-01
   1.22251164e-03 -1.94573915e-03 -7.27002472e-02 -5.84780984e-03
   1.52197823e-01 -4.18188199e-02  4.48319018e-02  4.87435125e-02
  -4.79583926e-02 -2.59936694e-02 -6.10307790e-02 -5.68400100e-02
  -1.95655841e-02 -3.62776443e-02  2.30523665e-02  5.95375476e-03
  -6.13297597e-02 -3.78957167e-02  4.30046916e-02 -3.93121131e-02
  -3.34446505e-02  5.03647551e-02 -3.07973381e-02 -7.01371506e-02
   6.95724692e-03 -7.90821612e-02  1.86843887e-01 -5.18390797e-02
  -8.00502524e-02 -5.01577891e-02 -9.45158396e-03 -6.37072697e-02
  -4.64040637e-02 -5.75176291e-02 -1.51020112e-02 -6.58218563e-02
   9.43376496e-03 -1.42324902e-02  3.28400210e-02  2.61348914e-02
  -2.93905456e-02  2.33762134e-02 -1.58624016e-02 -1.82450563e-02
  -4.25167680e-02 -4.51371372e-02 -6.18233287e-04 -8.79561603e-02
   5.09857899e-03 -2.66554067e-04  4.44222838e-02 -6.49105161e-02
  -1.75556298e-02 -6.94870278e-02 -1.00883525e-02  2.71840636e-02
   8.54656920e-02 -7.38997906e-02 -6.41046613e-02 -1.84559841e-02
  -7.29788968e-04 -1.18857108e-01 -2.53901239e-02 -8.96060988e-02
  -1.24188580e-01  2.70390846e-02  1.44420639e-01 -3.32015231e-02
  -3.71042043e-02 -8.30700472e-02  1.03869596e-02 -1.97892990e-02]
 [-2.00942475e-02  2.85488851e-02 -1.23303449e-02 -6.66739419e-02
   1.31072849e-01  7.51123577e-03 -9.18953940e-02  3.92687283e-02
  -8.65218863e-02  1.98324285e-02 -1.46073140e-02 -6.78322166e-02
  -7.90118277e-02  3.19381729e-02 -6.11888990e-03  1.57455727e-02
  -1.15028247e-02 -6.54507950e-02  4.93940152e-02 -2.93068159e-02
  -1.85533650e-02 -2.08822936e-02  4.87372689e-02 -7.31066391e-02
  -3.79380807e-02 -7.87363350e-02 -2.61441376e-02 -4.72297296e-02
  -7.85908699e-02 -9.36223418e-02  2.05665026e-02 -6.54201955e-02
  -8.32100492e-03 -7.39364773e-02 -5.10323385e-04 -3.27759162e-02
   2.04313230e-02 -9.64513347e-02  8.57189705e-04 -5.38259968e-02
  -3.84228230e-02 -2.90088542e-02  2.19180118e-02 -6.12442680e-02
  -3.82129475e-02  6.03562035e-02 -1.73162688e-02  4.14587781e-02
  -9.86116007e-02 -5.94760431e-03 -1.20164920e-02 -5.87077700e-02
  -2.12850925e-02 -5.98544255e-02  1.03144785e-02 -8.69423300e-02
  -2.69524753e-01  3.02566923e-02 -6.23651445e-02 -8.62658769e-02
  -2.75511295e-01 -1.14347665e-02 -6.31006202e-04  2.56450865e-02
  -1.52118132e-02 -7.40347877e-02  1.66186038e-02  1.41356094e-02
  -2.41011288e-02  1.69795621e-02 -7.52063319e-02 -5.05207032e-02
  -1.00709107e-02  1.66636501e-02 -2.95969918e-02 -9.63816792e-02
   1.12784348e-01  1.16523281e-02 -7.14176074e-02 -6.52892366e-02
  -3.83736268e-02 -1.45923567e-03 -5.57849109e-02 -2.33427241e-01
   3.37294652e-03 -9.56328288e-02 -4.71156090e-02 -6.84936941e-02
  -4.11383770e-02 -6.47648126e-02  9.89939738e-03 -3.74184586e-02
  -1.67532153e-02  2.01422982e-02  1.72926188e-02 -6.94548115e-02
  -5.51589206e-02 -2.85115503e-02 -5.70788123e-02 -3.12574394e-02
   3.62219661e-02 -8.19289982e-02 -2.78965682e-02 -3.02919885e-03
  -9.48583484e-02 -5.81176467e-02 -2.01885432e-01 -8.76273662e-02
  -4.37254459e-02 -3.22568268e-02  1.31843179e-01  3.74872163e-02
  -3.19343239e-01 -7.17950314e-02  2.13575199e-01 -6.21745996e-02
  -2.57683434e-02 -4.12524194e-02 -8.77260119e-02 -8.35610330e-02
  -5.39405309e-02  1.56113319e-02  1.46714121e-01 -4.05182280e-02
  -1.85174830e-02 -5.80828078e-02  3.33246514e-02 -8.08513463e-02]
 [-5.14865154e-03 -1.48759759e-03 -1.69151723e-02  3.93205844e-02
  -2.74037093e-01 -2.15885267e-01 -4.95999418e-02 -3.39091755e-02
  -8.10570940e-02 -1.59720778e-02  2.12555081e-02 -5.74778393e-02
  -9.89097804e-02 -4.60039154e-02  5.86454496e-02 -2.43180506e-02
  -6.77798465e-02 -4.43433151e-02  3.22619565e-02 -5.18696383e-02
  -7.65405372e-02 -6.56441972e-02 -8.56466219e-02 -2.65156515e-02
  -2.52188444e-02  1.96555872e-02  8.90715122e-02 -6.48587896e-03
  -8.79094377e-02 -8.56262892e-02 -3.73672247e-02  1.12356711e-02
  -1.36756012e-02 -2.93285716e-02  2.59029884e-02  2.38091256e-02
   2.02960316e-02 -4.59115878e-02 -1.97440218e-02  3.19363959e-02
   7.70534854e-03  5.50351627e-02 -5.59073500e-02  2.14774627e-02
  -6.81910142e-02 -2.39551459e-02 -7.06778560e-03 -1.01392418e-01
  -1.54661581e-01 -7.04723299e-02 -2.31225993e-02 -2.61674654e-02
  -4.67594415e-02 -3.25306728e-02 -5.96571043e-02  4.48199719e-01
   7.69200504e-01  2.44731607e-04  3.51644717e-02 -7.72156939e-02
  -2.94276297e-01 -6.96009025e-02 -6.75082430e-02  3.27106677e-02
  -5.32271303e-02 -2.96103898e-02  3.83723304e-02 -5.85193112e-02
  -6.35486320e-02 -6.25451952e-02  4.95448373e-02 -6.66250661e-02
  -7.89709613e-02 -8.35606754e-02 -7.21720159e-02  1.90602373e-02
  -5.99774346e-02 -7.77722150e-02 -4.07658285e-03 -2.77149435e-02
  -1.22386022e-02 -3.06370705e-02 -1.90809146e-01 -4.90521155e-02
   3.75999399e-02 -3.05282455e-02 -8.71934816e-02 -1.25990687e-02
  -3.14306803e-02  2.56169327e-02 -2.65739933e-02  7.92124048e-02
  -7.45428503e-02 -2.22714487e-02 -8.82915184e-02 -4.31988873e-02
  -2.70362627e-02  1.34151122e-02 -9.79278982e-02 -6.03003241e-02
  -8.18413049e-02 -5.08252680e-02 -2.59151999e-02  4.65997793e-02
  -1.09587282e-01  1.86699517e-02  1.61917612e-01 -5.25497273e-02
  -9.43640620e-02  7.11807376e-03 -2.73024589e-01 -4.36871611e-02
   1.14097469e-01 -3.82377394e-02 -2.85348259e-02 -4.96237315e-02
  -1.20668914e-02 -5.34381121e-02 -7.27652311e-02 -3.76584083e-02
  -5.13079353e-02 -3.75578739e-02  2.84739047e-01 -5.08882897e-03
  -5.10648377e-02 -2.91016768e-03  1.40983295e-02  1.52482949e-02]
 [-7.35524595e-02 -3.25266668e-03 -3.57713103e-02 -4.67039458e-02
  -2.25548998e-01  8.65268335e-02 -4.02509570e-02 -3.29795294e-02
  -2.45068409e-02  5.15172780e-01  3.59898731e-02 -2.57482380e-02
  -5.86960018e-02  3.19738378e-04 -4.81390879e-02 -1.32605275e-02
   6.33185217e-03  5.11490274e-03  5.00401668e-02 -5.59390634e-02
  -1.48826027e-02  3.21214870e-02  9.84511301e-02  7.06984103e-03
  -4.87312935e-02  5.37496898e-03  8.07431489e-02 -1.03988722e-02
  -4.14848253e-02 -1.05003268e-02 -5.42028844e-02  1.17494855e-02
  -6.77737189e-05  1.88621301e-02  1.32214557e-02  9.87594947e-03
  -1.85330957e-02 -6.05023652e-03  2.19632755e-03 -4.89790998e-02
  -1.57281123e-02  6.33388013e-02 -2.25817654e-02 -6.62815105e-03
  -5.27703166e-02 -1.94702148e-02 -2.15239041e-02 -6.96868151e-02
   3.53486836e-02  6.21181354e-02 -7.15941265e-02  7.10254312e-02
  -4.10710387e-02  1.08010310e-03  7.81236812e-02 -1.31440252e-01
  -1.64850995e-01  4.28864434e-02 -3.72539423e-02  1.73188206e-02
   2.30792239e-01 -1.78321023e-02  6.70922324e-02  1.38286836e-02
  -8.08080062e-02 -6.11071773e-02 -3.41486484e-02 -7.19346702e-02
  -6.33103922e-02 -6.66984776e-03  7.32345134e-02 -5.29090874e-02
  -1.10261841e-02 -1.61424652e-02  1.73104415e-03 -5.62816150e-02
  -1.34033129e-01 -3.34740281e-02  9.41787846e-03 -6.03187792e-02
  -1.61239281e-02  1.57000851e-02  7.29902014e-02  1.53488263e-01
   7.24407956e-02 -8.88384581e-02 -4.51633818e-02 -8.51002187e-02
  -2.54168399e-02 -7.51073956e-02 -1.52922953e-02 -2.75303870e-02
  -5.25337234e-02 -6.93858415e-02  6.33446639e-03 -4.52826433e-02
  -8.07976276e-02 -7.19087105e-03 -6.87863454e-02 -1.68651026e-02
   8.94199684e-02  3.44243683e-02 -4.98007201e-02 -6.50285333e-02
  -2.21987903e-01 -1.19814072e-02  7.72285610e-02 -5.43849356e-02
   6.25755638e-02 -5.73744886e-02 -1.47111803e-01 -5.24994619e-02
   1.30476475e-01  8.97724479e-02 -1.33714423e-01 -6.97460771e-02
   2.25869510e-02 -1.71842277e-02 -4.67058830e-02 -7.16884583e-02
  -8.15087780e-02 -1.70143973e-02  3.55602168e-02  8.18090364e-02
   5.83976507e-03 -2.34836824e-02  2.24888492e-02  8.70981440e-03]
 [-2.90905926e-02  1.38688562e-02 -8.95921662e-02 -8.63168295e-03
  -1.21988356e-01 -1.08000472e-01 -9.15683508e-02 -3.29275727e-02
  -3.19052162e-03  1.17132381e-01 -5.28247952e-02  4.00862545e-02
   6.69406494e-03  1.32971816e-02  1.98889859e-02 -1.16125029e-02
  -4.34113629e-02 -6.54959381e-02 -1.19968541e-02  7.85470940e-03
  -5.81606477e-02 -7.72493929e-02 -2.63550669e-01 -5.64021990e-02
   1.71277672e-03 -5.54330088e-02 -3.71894121e-01 -9.12084803e-02
   1.64690968e-02 -2.98437681e-02 -4.12967131e-02 -4.11569253e-02
  -4.79089692e-02 -1.62223261e-03  2.75835097e-02  3.98578644e-02
  -9.20022838e-03  2.27265004e-02 -1.32636761e-03 -7.84598663e-02
  -2.01668851e-02 -2.42707897e-02 -3.57333533e-02 -2.78415228e-03
  -5.61046749e-02  3.15550305e-02 -5.40899783e-02 -5.24163768e-02
  -6.17605820e-02 -2.93253679e-02 -4.24964875e-02  4.40704338e-02
   4.71692197e-02  4.88775969e-02 -4.39737812e-02 -2.43035350e-02
  -1.44904971e-01 -1.05932513e-02 -2.57641915e-02 -4.34263758e-02
   1.93106696e-01 -2.04471629e-02  4.14000228e-02  3.84259820e-02
  -2.59500258e-02 -7.32318908e-02 -9.18229520e-02 -2.85377726e-02
   6.80201277e-02  9.56348330e-03  2.40689851e-02 -9.03321430e-03
  -4.14145412e-03 -2.04547569e-02  1.47366807e-01 -9.69926827e-03
  -1.04977846e-01  2.16152947e-02 -6.54671863e-02 -5.58328256e-02
  -3.59821655e-02 -7.97124133e-02 -5.05771711e-02 -1.10782541e-01
  -3.28608513e-01  1.87461451e-02  6.02433123e-02 -2.39732536e-03
  -4.77264896e-02 -8.56048539e-02 -5.49524799e-02  3.87792028e-02
   2.19898811e-03 -9.04627144e-03  4.45211073e-03 -6.09297678e-03
   2.85732257e-03  3.38776968e-02  6.20676577e-03 -6.70343414e-02
   3.38815860e-02 -6.70499876e-02  2.46374868e-02 -6.06294163e-02
  -2.52360124e-02 -4.36238647e-02 -5.40832043e-01 -8.38045478e-02
   6.01440221e-02 -1.77618265e-02  6.38305470e-02  1.56107321e-02
   3.12358379e-01  6.84994981e-02 -3.34020317e-01 -3.22955884e-02
   3.10625788e-02 -4.63624634e-02  4.50479686e-02 -1.69646405e-02
   1.77811936e-01  1.32133737e-02 -2.45138615e-01  4.51396815e-02
   2.24997643e-02 -5.14662750e-02  5.42228073e-02  2.98714750e-02]
 [-7.17396941e-03 -8.57892074e-03  6.37200922e-02 -5.03959283e-02
  -1.81470066e-01 -4.08548042e-02 -9.04550999e-02 -3.70686799e-02
   1.62584092e-02  3.10943305e-01 -6.21562488e-02  2.63049249e-02
  -4.66242507e-02 -3.05506922e-02  5.66654354e-02 -8.83163661e-02
  -6.68145344e-02  1.56053121e-03 -5.61979674e-02  6.48862356e-03
  -1.01683483e-01 -2.68956497e-02 -4.80084568e-02 -8.13083351e-02
  -6.61949739e-02 -2.24435236e-02 -1.37639707e-02 -1.40209415e-03
  -7.48917134e-03 -5.00704162e-02 -1.07184462e-02 -6.25165552e-02
  -4.50272821e-02  2.67886445e-02 -3.74648869e-02 -5.32654896e-02
  -7.84648675e-03 -4.94078510e-02 -4.85122390e-02  3.01973987e-02
  -6.12295307e-02 -1.54576413e-02 -7.31796175e-02  7.75649620e-04
  -3.51347290e-02 -3.78838703e-02 -5.04074357e-02  4.13394235e-02
  -3.82164791e-02 -1.01571627e-01 -7.57583529e-02 -3.45071629e-02
  -6.91537559e-02 -1.79080689e-05 -4.16652970e-02 -2.39179302e-02
   1.10205136e-01 -3.57247591e-02 -5.08650113e-03 -3.05965953e-02
  -2.34398574e-01 -5.51012382e-02 -7.88348913e-02 -7.82056600e-02
  -2.07764432e-02 -2.49252794e-03 -1.83882304e-02 -1.17816338e-02
  -4.06663083e-02  1.77780464e-02 -1.84113868e-02 -4.75717261e-02
  -4.94269207e-02 -6.06927089e-03  2.32104838e-01 -4.64559905e-02
  -3.13093327e-02 -1.11398343e-02 -7.91397765e-02 -2.69408822e-02
  -5.27653024e-02 -7.69958720e-02 -4.79197279e-02 -5.26128672e-02
   1.07161477e-01 -7.70178139e-02 -5.77051044e-02 -4.17683125e-02
   1.76292881e-02 -6.74855262e-02 -4.47987542e-02  2.45400127e-02
   1.52689982e-02 -7.13225454e-02 -1.52631588e-02 -9.52113867e-02
  -6.52875975e-02  2.00834926e-02 -2.10882723e-02  1.42027410e-02
   6.40842598e-04 -8.04874226e-02 -7.63046741e-02  4.26359475e-02
  -1.36432618e-01  3.63245164e-03 -6.70259148e-02 -2.34195124e-02
  -3.75225358e-02 -5.27701527e-02 -1.59042194e-01 -8.41571763e-02
   2.03411896e-02  2.41990369e-02 -2.43779764e-01  3.76382135e-02
   3.76845822e-02 -9.05686710e-03 -1.86693426e-02  6.06733258e-04
   5.36651433e-01 -7.29994699e-02  5.25070280e-02 -6.98135644e-02
   2.09493414e-02 -5.19533642e-02 -1.43997194e-02 -4.56963815e-02]
 [-2.92479852e-03  9.64017957e-03 -2.94001531e-02 -6.85920417e-02
  -1.02163166e-01 -1.54736623e-01 -4.16801833e-02 -8.18040315e-03
  -5.48685640e-02 -1.62983343e-01 -6.83901384e-02 -2.60360390e-02
  -3.62650976e-02 -1.13774575e-01  2.19214968e-02 -6.53887959e-03
  -2.41579302e-02 -8.77416506e-02 -1.74231194e-02 -8.97431448e-02
  -9.33536291e-02 -1.69221405e-02  1.50690213e-01  3.19211334e-02
  -8.17350298e-03 -2.79926267e-02  1.81516688e-02 -1.85592882e-02
   2.75996160e-02 -4.20497954e-02  5.94028197e-02  1.40991854e-02
  -3.19969021e-02  8.95217247e-03 -5.70391268e-02  2.24091336e-02
   2.86310986e-02 -6.78238720e-02 -4.09402810e-02  9.21909045e-03
  -6.73747808e-02  2.33962834e-02 -9.04543847e-02 -3.22894864e-02
  -4.54214327e-02 -1.44154131e-02 -9.24662054e-02  4.97552529e-02
  -3.11970897e-02 -8.34428445e-02  7.01088831e-02  3.38473991e-02
  -1.83165595e-02  4.02240492e-02  5.27188508e-03 -1.83725938e-01
  -5.88095784e-02  2.65353862e-02 -5.40019982e-02  2.41197608e-02
  -7.60505646e-02 -2.69971620e-02 -2.59721335e-02  3.07649616e-02
  -3.29186171e-02  2.76233032e-02 -8.19012597e-02 -3.35708261e-02
  -7.61925876e-02 -5.59727363e-02 -6.09311946e-02 -8.59618634e-02
   6.15293309e-02 -1.66602507e-02  7.26111978e-02 -1.18867578e-02
   1.56996530e-02 -1.24848140e-02  1.33854067e-02  4.25566081e-03
  -1.14581478e-03 -8.89526159e-02 -9.95239466e-02 -6.64992854e-02
  -2.00393684e-02 -4.39600348e-02 -5.93090914e-02  2.68120244e-02
  -7.69866854e-02  2.67702881e-02 -5.94878085e-02  2.03419328e-02
  -5.39058112e-02 -5.31530716e-02  8.12225882e-03 -9.11551621e-03
  -6.00397252e-02 -3.19951288e-02 -1.59325823e-02 -5.36212400e-02
   1.14683406e-02  1.90494172e-02 -8.13074633e-02 -9.93793383e-02
  -6.82857111e-02  2.61640400e-02  1.12172619e-01 -1.35903684e-02
  -4.03759964e-02 -1.83722295e-03 -2.20097691e-01  5.38093783e-02
  -1.41117096e-01 -7.70144537e-03 -1.00893192e-02 -2.31863614e-02
   2.78186444e-02 -5.41888885e-02  1.42102111e-02 -6.81599304e-02
  -2.39673376e-01 -8.64878073e-02  1.67207763e-01 -1.56050234e-03
  -2.37463489e-02 -7.20278025e-02  2.24272422e-02 -8.65012705e-02]
 [-8.34909827e-02 -2.80496175e-03 -4.20703441e-02 -6.65316766e-04
  -5.54351062e-02 -3.11161820e-02  1.37327658e-02 -4.98277582e-02
   7.79467868e-03 -4.88755200e-03 -3.19425575e-02 -1.61341373e-02
  -6.15281910e-02  1.80782527e-02  2.62395144e-02  3.55254784e-02
  -4.04865183e-02  8.26312415e-03 -1.22543378e-02 -5.59933260e-02
   8.69878422e-05 -6.10550344e-02 -1.22978734e-02  6.49423013e-03
   3.06755230e-02  6.30723638e-03 -8.28053504e-02 -1.31199891e-02
  -5.70126027e-02 -2.55742315e-02 -5.25688417e-02 -4.20298092e-02
  -1.60436204e-03 -7.52056912e-02 -1.16982562e-02 -1.92462150e-02
  -6.30367966e-03 -1.14540160e-02  1.67380888e-02 -5.84242344e-02
   4.40324545e-02 -7.73992911e-02 -6.40730858e-02 -3.15354094e-02
  -7.03995973e-02 -3.55839767e-02  3.76298055e-02 -6.43301755e-02
   1.44458015e-03 -8.44888836e-02 -2.19678152e-02 -4.16924506e-02
  -2.63793916e-02 -2.91368691e-03 -5.01323789e-02 -2.47015893e-01
   5.21689504e-02 -8.22011456e-02  1.31195001e-02 -3.88087928e-02
  -4.79346693e-01 -6.91147670e-02 -2.54958328e-02  3.34338029e-03
  -8.39201584e-02  1.08605903e-02 -2.31341049e-02 -2.70100478e-02
   1.75944564e-03 -3.39190848e-02  2.20389348e-02 -3.21234986e-02
  -2.96702385e-02 -4.55920063e-02 -7.00227916e-02  4.74049523e-03
   5.58416434e-02 -3.21033783e-02 -8.93043056e-02 -4.66519669e-02
  -3.70188951e-02  1.07145207e-02 -2.13719513e-02 -5.94769157e-02
   1.80244312e-01 -3.51015404e-02 -5.19080274e-02 -8.20911303e-02
   8.77333991e-03  1.46789150e-02  2.74199760e-03 -3.38245183e-02
  -8.32682550e-02 -4.23569791e-02 -6.44306391e-02 -1.50809735e-02
  -6.46101013e-02 -5.94791621e-02 -1.73821265e-03 -2.93485951e-02
  -4.62494902e-02 -9.17834267e-02 -2.58771405e-02 -4.85828780e-02
  -1.20928369e-01  1.15418006e-02  3.02591681e-01 -5.75356670e-02
  -7.64564937e-03 -7.06584938e-03 -7.11759645e-03 -3.66729312e-02
   1.96696326e-01 -9.02989600e-03  3.27927433e-03 -5.81629686e-02
  -2.05165595e-02  1.30546065e-02 -3.03092971e-03  2.26470213e-02
  -2.22069815e-01  9.07049421e-03  6.60917908e-02 -6.71336800e-02
  -4.67953905e-02 -2.31281552e-03 -1.95138212e-02  1.87784303e-02]
 [-1.13038206e-02 -3.41664255e-02 -8.00351202e-02  3.40105332e-02
  -6.88643148e-03 -1.14860468e-01  1.12306774e-02  2.29310300e-02
  -5.03436215e-02 -5.93018606e-02  4.27566357e-02 -5.74344136e-02
  -1.54951187e-02 -3.88407670e-02  2.78388411e-02 -1.17383869e-02
  -1.38877891e-02 -1.69335920e-02 -3.27860862e-02 -6.95992485e-02
  -6.90201744e-02 -2.76317298e-02  6.62247092e-02  8.54649639e-04
  -6.11195043e-02 -1.04841739e-01  1.60308212e-01 -8.77596289e-02
   2.68407725e-02 -1.05089974e-02 -7.04280138e-02 -3.43774073e-02
   3.03626899e-03 -1.70323830e-02  2.04059929e-02 -4.16162722e-02
   3.64784896e-02 -6.46726638e-02  3.01668439e-02 -3.29724737e-02
   8.40790011e-03  3.35822888e-02 -4.06464301e-02 -1.96898598e-02
  -2.59289257e-02 -6.01945305e-03  3.05903349e-02  7.09678531e-02
  -5.18787391e-02 -7.39451647e-02 -4.21546474e-02 -4.35873494e-02
  -7.73642585e-02  5.48812607e-03 -6.69056103e-02  3.12649876e-01
  -6.84147105e-02 -6.81090206e-02 -6.08557723e-02  2.40372047e-02
  -1.95585072e-01 -1.84497591e-02  1.87752377e-02  1.08482793e-01
  -2.71982327e-02 -7.41672739e-02 -2.11977940e-02 -1.55433146e-02
  -9.02557001e-02 -6.40840009e-02 -2.22355244e-03 -2.20808387e-02
  -6.55808160e-03 -4.95805331e-02 -2.44335830e-01 -1.02842659e-01
  -3.82457316e-01 -5.48793061e-04 -1.86285954e-02 -8.37561768e-03
   3.06203943e-02  2.01366004e-02 -9.93956998e-02 -3.85653265e-02
   1.21631339e-01 -9.04260874e-02 -2.45800391e-02 -6.22541532e-02
  -4.04091924e-02  2.66272984e-02 -3.98937277e-02  1.11901970e-03
  -5.65355346e-02 -7.01330379e-02 -2.43933164e-02  2.61889491e-03
  -2.18026936e-02 -7.05560893e-02 -5.93739264e-02 -6.69996217e-02
  -5.42204231e-02 -1.80756040e-02 -8.93872753e-02 -1.46431606e-02
  -2.35621795e-01 -1.75789949e-02  1.36911035e-01 -7.60772601e-02
  -4.82201613e-02 -8.49204585e-02 -7.79535770e-01 -8.32031667e-02
   3.95927653e-02 -5.20720705e-02  7.42410123e-02 -7.32924864e-02
  -2.30218470e-03 -1.17530990e-02 -2.74616219e-02 -3.54961194e-02
  -3.76571387e-01 -1.89823676e-02 -7.83917308e-02 -1.67666934e-02
   8.74313526e-03  4.32756636e-03 -6.68643788e-02  6.74974779e-03]
 [ 2.33370233e-02 -6.90437257e-02  7.26496847e-03  4.70350962e-03
  -3.84106673e-02  1.15019701e-01 -4.69172262e-02 -7.55572170e-02
  -1.30966175e-02  3.29854131e-01  1.24185057e-02 -7.18676075e-02
  -4.01805975e-02  2.49679275e-02  1.96612184e-03 -5.23593416e-03
   2.01985501e-02 -7.79622942e-02 -1.33744488e-02 -5.83473705e-02
  -1.91395022e-02 -5.40636778e-02  9.17168707e-02 -1.92764606e-02
  -6.41084462e-02 -9.43497475e-03  4.26012993e-01 -6.78304285e-02
  -5.96214738e-03 -5.42594418e-02  2.29285769e-02 -3.30764428e-02
  -1.06051110e-01  9.43463296e-03 -7.91681707e-02 -5.42286113e-02
  -2.90530571e-03 -1.97121743e-02 -8.42126310e-02 -2.85039656e-02
   2.42459830e-02 -1.16171250e-02 -2.27406435e-02 -1.48172248e-02
  -3.16816457e-02  1.05303398e-03 -3.65097448e-02 -9.14629623e-02
  -6.15364537e-02  2.88188420e-02 -5.63067645e-02 -6.85104951e-02
  -3.27623747e-02 -9.28530842e-02 -2.44271979e-02  7.64239728e-02
   1.10673629e-01  1.49152903e-02  2.79113208e-03  1.27464887e-02
   9.94411558e-02  5.74419787e-03 -2.91029979e-02 -6.46652803e-02
   2.65491344e-02 -4.76381667e-02  1.78866554e-02 -1.59671027e-02
  -1.41076045e-02 -2.56421277e-03  6.99882535e-03 -6.33025765e-02
   7.42512792e-02 -3.40700224e-02 -1.09835252e-01 -3.25971507e-02
  -3.55275720e-01 -2.41861884e-02  5.89896701e-02 -2.98998505e-02
   1.22920359e-02 -7.34068602e-02  7.89985284e-02 -6.78393021e-02
   2.06545979e-01 -2.41320878e-02  2.61822529e-02 -3.31425555e-02
   4.67424188e-03 -2.68720668e-02  2.64078714e-02  1.75972357e-02
   1.72572713e-02 -7.27086961e-02 -1.25865713e-02 -7.75485113e-02
  -7.46199042e-02 -7.55188540e-02  3.30048753e-03 -5.92776351e-02
  -2.62893345e-02 -2.03113072e-02 -8.99093226e-02  5.77818509e-03
  -2.23902613e-01  2.09933035e-02  8.68332162e-02 -2.56807357e-02
   4.31449413e-02  1.08628022e-02 -1.95554376e-01  1.21578379e-02
  -8.67745876e-02 -4.57661822e-02  1.22954110e-02 -4.25495654e-02
   2.64181141e-02  1.95747372e-02 -7.05824494e-02 -4.20834497e-02
  -1.63730159e-01 -2.63389610e-02  9.37452689e-02 -6.03999011e-02
   4.37743543e-03 -5.58553971e-02  1.75632983e-02  2.57867258e-02]
 [ 1.25594186e-02  5.66322543e-02 -7.00000720e-03  3.83272581e-02
  -1.71454012e-01 -1.07335068e-01 -9.51802060e-02  3.92737538e-02
  -9.21868011e-02  1.82810694e-01 -2.46879179e-02 -8.64818096e-02
  -5.59131429e-02 -2.55481750e-02 -5.77398762e-03 -1.77128296e-02
  -4.98494394e-02  5.62563259e-03 -5.05205765e-02 -5.99118769e-02
  -3.74716613e-03 -2.74351053e-02 -3.29042882e-01 -1.94590986e-02
  -1.18756704e-02  1.20384311e-02 -4.96351510e-01  2.00855024e-02
  -1.00249372e-01 -5.07912226e-02  1.61767397e-02 -4.13614698e-03
  -3.01664304e-02  5.13463560e-03 -2.25654412e-02 -1.22759519e-02
  -5.79950772e-02  6.50095427e-03 -2.62989569e-02 -3.92305553e-02
  -2.86476072e-02 -4.57400419e-02 -6.53002784e-02 -1.53504945e-02
   1.89395901e-02 -3.55950668e-02 -2.53034867e-02 -1.83547437e-01
   2.25514583e-02 -2.45793648e-02 -3.63703407e-02 -1.82958022e-02
  -2.95125623e-03 -3.46343853e-02  1.74206551e-02 -8.21192656e-03
   9.38444585e-02 -3.63615006e-02 -1.83076062e-03  3.99992280e-02
   1.26164928e-01  3.50634307e-02 -4.34244052e-02  3.85787375e-02
  -1.17838662e-02 -7.38948807e-02  1.10463658e-02 -4.88112345e-02
  -4.09027599e-02 -8.31335485e-02 -4.74594869e-02 -1.26695093e-02
   1.07229967e-02 -4.61608246e-02  2.33623311e-01 -1.54343778e-02
  -4.29955572e-02  6.31959410e-03 -9.28495303e-02 -2.59499755e-02
   2.23084278e-02 -3.21196355e-02  3.57528366e-02 -7.29090273e-02
  -3.25719208e-01 -8.58184844e-02 -5.75114638e-02 -3.13265026e-02
  -9.58826020e-03 -4.72627245e-02 -8.15210342e-02 -2.93909851e-02
  -4.20525484e-02 -1.55825382e-02  1.78404413e-02 -6.35607466e-02
   1.62797160e-02 -6.25059828e-02 -3.44633460e-02 -4.30732332e-02
   5.92244752e-02 -4.48434278e-02 -5.90471029e-02 -5.05115557e-03
  -7.82755613e-02 -2.50274804e-03 -3.44179541e-01  2.20242087e-02
   6.13301508e-02 -5.56424595e-02  1.52655644e-02 -6.61592111e-02
   1.33823574e-01 -4.34162244e-02 -4.02448714e-01 -4.19194959e-02
   1.82537246e-03  5.17439051e-03 -2.16704905e-02 -8.33044425e-02
   1.29923016e-01  7.74478074e-04 -7.88950697e-02 -5.39707877e-02
  -4.83664647e-02 -8.66522044e-02  2.37623174e-02 -2.49788258e-02]
 [-7.26707503e-02 -5.60322357e-03  4.74449955e-02 -9.05453984e-04
  -1.27819330e-01  6.66993782e-02 -9.24632996e-02 -3.73333655e-02
  -8.62111151e-02  3.97686511e-02 -8.07776581e-03 -5.56710027e-02
  -2.46231314e-02  7.35332863e-03 -4.72705737e-02 -4.91809507e-04
   1.63316969e-02 -3.78841981e-02 -3.49913798e-02 -8.35195109e-02
  -3.98828723e-02 -7.79407248e-02  1.08665630e-01  9.74917598e-03
  -8.60066414e-02 -1.48806376e-02 -6.17966056e-04 -4.83050682e-02
  -6.57580867e-02 -4.43914309e-02  8.26109760e-03 -3.96044506e-03
  -5.57898507e-02  2.04671524e-03  3.74570489e-03 -8.75634775e-02
   5.14720799e-03 -5.69645315e-02 -5.27869463e-02 -2.64327601e-03
   3.29173431e-02  3.29313204e-02  1.66704860e-02 -4.48172912e-03
  -1.39723783e-02 -3.47718224e-02 -1.41143030e-03 -3.49528603e-02
  -6.15192056e-02 -5.07378504e-02 -4.48021628e-02 -7.58594051e-02
   3.96152511e-02 -1.22768255e-02 -6.17194511e-02 -7.68710151e-02
   1.18112592e-02 -6.54725060e-02 -1.57776717e-02  2.96090059e-02
  -4.79296774e-01 -5.41378818e-02 -6.06915466e-02 -3.86977196e-02
  -2.78091114e-02  6.55987998e-03  5.32361725e-03 -1.27964457e-02
   4.06357758e-02  1.03691304e-02  2.99555194e-02 -5.76560907e-02
  -2.68640202e-02  2.11278461e-02 -4.94138002e-02 -9.04400423e-02
   1.92954913e-01 -1.22009488e-02 -6.53599575e-02  2.09234953e-02
   2.78621931e-02 -4.10651788e-02 -2.59628370e-02 -1.88003257e-01
  -1.88042801e-02 -2.12579481e-02  3.11791990e-03 -5.12117110e-02
  -6.32224530e-02  1.52358534e-02 -5.83100170e-02 -6.99544549e-02
   2.90800855e-02  1.68383550e-02  1.98905561e-02 -6.83457330e-02
  -8.02071840e-02 -3.33440416e-02 -7.94387702e-03 -2.40501557e-02
   1.17844110e-03  1.94000136e-02 -3.41803022e-02 -4.10530679e-02
  -6.16783127e-02 -4.58297953e-02 -5.24360575e-02 -2.78912596e-02
   8.90257675e-03  7.35087832e-03 -6.54023886e-02 -5.51067628e-02
  -6.63878918e-02  1.06091949e-03 -1.86971396e-01  4.87308502e-02
   3.10198101e-03 -3.17911655e-02  1.34115601e-02  1.96422637e-02
   3.82214755e-01 -3.47838253e-02  1.55506968e-01 -5.38001843e-02
  -6.79755583e-02 -7.50824958e-02 -3.40231992e-02 -2.47574374e-02]
 [-8.55325460e-02  1.23680746e-02  4.60423492e-02 -2.35253852e-02
  -9.35533196e-02 -2.57444352e-01  1.37593225e-02 -3.23012136e-02
  -3.43652777e-02 -1.19051591e-01 -1.60121676e-02 -9.42032263e-02
  -5.03355935e-02 -6.70031160e-02 -8.27447325e-02 -3.82867157e-02
  -6.75865412e-02 -3.44186313e-02 -7.74835795e-02 -5.48552237e-02
  -2.04795506e-02 -3.14631239e-02  8.58201459e-02  3.84174064e-02
   3.60417590e-02 -9.10466835e-02  5.47825135e-02  7.71083916e-03
   2.80279275e-02  6.47619076e-04 -6.42920434e-02 -5.98061159e-02
  -1.06169403e-01 -8.50009266e-03 -6.80150837e-02  1.89200509e-02
  -8.81990492e-02 -7.26332217e-02 -1.91335957e-02 -8.01448524e-02
   1.52886976e-02 -6.72320090e-03  2.68976390e-03  8.51005036e-03
  -7.90523738e-02 -2.59611499e-03 -7.09258169e-02 -8.24045390e-02
   2.22943723e-02 -1.96711831e-02  1.28996850e-03  1.41758462e-02
  -3.42016518e-02  1.15486104e-02 -2.57633962e-02 -3.65283825e-02
   1.58951227e-02 -7.66448230e-02 -1.18410084e-02  3.34445387e-02
   1.16057314e-01 -6.36907518e-02 -4.38199379e-02  1.24129727e-02
  -6.02641590e-02 -8.50402266e-02 -5.27150482e-02 -1.82376318e-02
  -7.58153871e-02  2.07964121e-03 -1.73686091e-02 -1.82146449e-02
  -1.49958329e-02 -6.47645965e-02 -6.71624616e-02  4.88040783e-02
  -6.47717342e-03 -4.26534638e-02 -7.29102790e-02 -2.85156984e-02
  -5.93489073e-02 -6.42594993e-02  1.00959390e-02 -1.15655772e-01
   8.16692933e-02 -2.77260952e-02  5.82293421e-03 -1.51793789e-02
  -5.80297634e-02 -4.25978228e-02 -7.01793581e-02 -2.04223506e-02
  -7.84464628e-02 -7.85094351e-02 -3.61885577e-02  3.62348072e-02
  -8.81885737e-02 -6.82361498e-02  1.32000316e-02 -1.31402696e-02
   4.03038785e-02  4.29671258e-02 -4.37100139e-03 -4.02504653e-02
  -1.44729555e-01  4.82852869e-02  2.12823614e-01 -7.61711821e-02
   7.95606617e-03 -2.66094338e-02 -1.21074133e-01 -1.21758450e-02
  -3.22909534e-01 -4.32653427e-02 -4.81890105e-02  1.82499978e-04
  -3.50542553e-02 -8.43493119e-02 -1.09638339e-02  4.62897634e-03
  -7.07277209e-02 -8.49067792e-02  1.52623236e-01  4.62585241e-02
  -9.82478634e-03  6.76385639e-03  3.21914479e-02 -3.92153449e-02]
 [ 1.57640763e-02 -4.83648628e-02 -7.36089796e-02 -5.98767400e-02
  -2.39752650e-01  1.14709340e-01 -6.03137054e-02 -5.82754202e-02
  -6.71863854e-02  1.07830256e-01 -1.66492872e-02  2.39999741e-02
   2.73286868e-02 -1.17229737e-01 -8.02401304e-02 -5.85835986e-02
  -8.13452825e-02 -1.60072204e-02  6.13315813e-02  1.06168594e-02
  -5.32985441e-02  3.94286625e-02 -1.03902794e-01 -4.47746068e-02
  -1.40398629e-02 -3.63856256e-02  8.77384916e-02 -8.65319297e-02
  -2.01411843e-02  1.49189094e-02  1.20298462e-02 -4.93796403e-03
   8.24716222e-03  1.24537358e-02 -5.85706122e-02 -5.19152693e-02
  -5.13238460e-02 -1.04887215e-02 -1.05261719e-02 -4.74005006e-02
  -5.46739288e-02 -3.64800319e-02 -5.99626936e-02 -5.44785187e-02
   2.59010643e-02 -6.08160459e-02 -8.65157843e-02  1.69532727e-02
  -1.16802761e-02 -8.02334771e-02 -5.26235886e-02  4.53499705e-03
  -2.01453548e-02 -3.02879289e-02 -8.19344074e-02 -2.32685089e-01
  -9.80387181e-02 -2.89639793e-02 -2.86980141e-02 -7.46875554e-02
  -4.22642767e-01 -5.22207133e-02  6.93817511e-02  2.00882908e-02
  -8.75139758e-02 -3.49196754e-02 -8.96178745e-03 -2.29981728e-02
  -8.15358758e-02  3.19288881e-03 -5.01072705e-02 -5.02998605e-02
  -7.57833645e-02 -1.30096739e-02  4.16499283e-03 -4.42337506e-02
   6.49981480e-03 -6.65755360e-04 -4.91162799e-02 -8.72272924e-02
  -3.62872481e-02 -1.70082152e-02 -7.11825192e-02 -2.05534160e-01
   1.15464397e-01  1.48650398e-02  3.25792320e-02 -3.60490605e-02
  -3.07730748e-03 -2.17219368e-02 -6.31429106e-02 -7.18984827e-02
   5.46496473e-02 -5.95641173e-02 -4.75918017e-02 -7.30104372e-02
   1.40119558e-02 -3.03988867e-02 -3.41383857e-03 -5.87913319e-02
  -5.21489158e-02 -7.91166127e-02 -6.73446655e-02  7.48505164e-03
   4.91465768e-03 -4.22735214e-02  5.36954179e-02 -3.83725613e-02
   6.18138351e-02 -3.71217951e-02  1.17875151e-01 -1.95820145e-02
   1.55822277e-01  3.93304005e-02 -2.16838513e-02 -6.43101633e-02
  -1.81150604e-02 -5.69588915e-02 -4.11524214e-02 -8.24574456e-02
  -4.48376536e-02 -6.91123754e-02 -7.28383437e-02 -6.78538382e-02
  -7.63286725e-02  1.68012381e-02  7.38078915e-03 -4.44972739e-02]
 [-7.26849735e-02 -1.10691059e-02 -2.85859276e-02 -3.94682623e-02
   2.15280190e-01 -1.10005513e-01 -7.84692168e-02 -4.72555794e-02
   1.62414145e-02  8.63228142e-02  4.21958789e-02  2.70637590e-02
  -1.42021868e-02 -6.07967470e-03 -4.61978316e-02  6.33587595e-03
   1.01903928e-02 -8.82961154e-02 -2.53891237e-02 -1.77608524e-02
  -2.37174500e-02 -4.23243158e-02 -5.12079969e-02 -4.60631400e-02
   2.18965186e-04 -6.00110963e-02  1.08615778e-01 -5.13038673e-02
  -3.38077843e-02  1.21303648e-02 -9.94746312e-02 -5.72482087e-02
   1.59626063e-02  4.24441360e-02 -4.36706096e-02 -4.21428531e-02
   2.04274952e-02 -3.11930683e-02 -2.43397001e-02 -5.13520017e-02
  -3.25842835e-02 -3.28211486e-02 -4.08095270e-02 -7.54338652e-02
  -7.75401145e-02 -5.09819994e-03 -3.57934199e-02 -1.32021815e-01
  -8.11704919e-02 -3.23609523e-02  6.79100724e-03 -4.70453314e-02
  -7.25548416e-02 -8.30976218e-02 -6.32794574e-02 -5.33757135e-02
  -1.08158868e-02  3.01916618e-02 -5.60447574e-02  5.38732186e-02
  -2.51282424e-01 -5.38647771e-02 -6.99931905e-02  8.92372206e-02
   4.86549316e-03 -1.61408447e-02  1.56362299e-02 -1.48188220e-02
  -1.61738079e-02  1.33975009e-02 -4.57996093e-02 -8.69437009e-02
   3.61560509e-02 -8.84890705e-02 -2.04245597e-01 -8.31524953e-02
  -4.44216691e-02  3.89080010e-02  4.22645845e-02 -1.67476181e-02
  -9.89710912e-03 -8.17449465e-02  1.68692231e-01 -3.28647085e-02
   2.34869823e-01 -4.11071926e-02 -3.50926742e-02  7.05702882e-03
  -5.12077399e-02  1.09309759e-02  3.18968743e-02 -5.27411327e-02
  -2.42210496e-02 -7.60756806e-03 -5.26215546e-02 -3.38589661e-02
   1.85403340e-02 -5.34324981e-02 -1.52187627e-02  6.12613559e-03
  -6.37480691e-02 -1.10167690e-01 -5.54426536e-02 -3.14757787e-02
  -5.12293056e-02 -5.60710169e-02  3.04600924e-01 -4.15556282e-02
  -9.69690904e-02 -6.15429580e-02 -3.28762770e-01 -7.72859231e-02
  -1.10623620e-01 -7.02684671e-02  7.02629834e-02 -1.44305627e-03
  -2.28572488e-02 -9.27013457e-02 -9.73487739e-03 -5.23025133e-02
  -5.10137416e-02  9.16637667e-03  1.38243824e-01  1.66705325e-02
   1.86916888e-02 -8.49959999e-02 -3.23359184e-02  1.91847775e-02]
 [-4.56607752e-02  1.71898250e-02  7.14233369e-02 -6.76429272e-02
  -1.08482800e-01 -4.65284809e-02 -1.05570620e-02  3.21429707e-02
  -4.88697104e-02  1.60709694e-01 -4.20408929e-03 -2.39213817e-02
  -4.94820140e-02 -8.00439715e-02  1.56012550e-02 -9.77065042e-03
  -4.90359366e-02 -5.38682267e-02 -1.65908411e-02 -1.03051908e-01
  -2.12706495e-02 -4.49037999e-02  1.53928220e-01  6.11590594e-03
  -6.92711025e-02 -3.11973542e-02  4.11248296e-01 -2.22618561e-02
  -6.75960556e-02 -1.62375085e-02 -7.42665082e-02 -9.02205631e-02
  -5.26154526e-02  4.64024507e-02 -5.85111827e-02 -2.63936073e-02
  -8.16781148e-02 -6.15475662e-02 -5.60211278e-02 -2.76961513e-02
   2.74897162e-02 -2.51386613e-02 -5.57413464e-03 -3.32183987e-02
   6.11639954e-03  2.13530138e-02 -2.31231079e-02 -1.51410084e-02
  -8.86622071e-02  2.78946720e-02  2.32180357e-02 -1.08739883e-02
  -7.24153519e-02 -6.25972673e-02 -8.15417059e-03  4.90539074e-02
   4.24420573e-02 -1.68666206e-02  9.10705607e-03 -4.55280542e-02
   7.04974756e-02 -4.66193743e-02  1.87511202e-02 -3.69990692e-02
  -4.02508862e-02 -3.01561449e-02  1.82642397e-02 -4.55538258e-02
   1.54337939e-02 -2.95083486e-02 -5.18702194e-02 -9.10165906e-02
   7.01610968e-02 -2.40726843e-02 -7.82753993e-03  6.62159100e-02
  -3.08780044e-01 -7.65900267e-03 -5.90267479e-02 -8.68122652e-02
   3.69522609e-02 -5.39830662e-02  1.37608841e-01 -5.73587231e-02
   9.23049152e-02 -3.83137986e-02  1.50234299e-02  7.77935376e-03
  -1.03442585e-02 -9.09906998e-02  9.60267894e-03 -4.57065739e-02
  -9.76363569e-02  1.34666432e-02  2.80215610e-02 -3.56981456e-02
   3.54653783e-02 -4.42023762e-02 -8.63992199e-02 -2.12538354e-02
  -4.89530107e-03 -4.62132785e-03  1.73411109e-02 -2.46256739e-02
  -2.37009555e-01  9.73102078e-03 -2.53223702e-02 -4.92253117e-02
   4.24080193e-02 -5.59532158e-02 -2.86961973e-01  2.68040621e-03
  -1.85954064e-01 -1.21210339e-02 -9.08149183e-02 -1.57651398e-02
   6.83212653e-02 -8.99766758e-03 -7.25348433e-03  1.63590051e-02
  -4.74375129e-01 -2.34413259e-02  1.31208360e-01  2.49635093e-02
   2.25518104e-02 -3.79303023e-02 -7.00140297e-02 -4.80800122e-02]
 [-2.95933075e-02  3.26528139e-02  5.63610438e-03  1.86874263e-03
  -2.21990407e-01 -2.59832859e-01 -2.10021455e-02 -7.81191736e-02
   8.83266926e-02  6.58441484e-02 -2.28552567e-03  3.71821458e-03
  -3.37738022e-02 -4.58031967e-02 -2.84766927e-02  2.05033831e-02
   1.11947116e-02  2.77301352e-02  1.42553933e-02  1.51892724e-02
   2.92273960e-03  2.03666165e-02 -4.04304147e-01  4.32880446e-02
  -4.37275954e-02  1.02900602e-02 -4.11497056e-01 -5.29688038e-02
  -5.92839271e-02 -7.82846883e-02  4.88325320e-02 -5.04605062e-02
  -4.92654331e-02 -4.89022806e-02 -8.57738480e-02 -3.98186930e-02
  -4.07663696e-02  1.77744161e-02 -4.46372619e-03 -6.03977218e-03
   3.49553186e-03  3.05140950e-02 -4.22884859e-02 -7.69879147e-02
  -8.47627893e-02  4.68750298e-02  2.73924340e-02 -7.99504295e-02
  -4.61139642e-02 -3.22410949e-02 -6.86257333e-02  2.14335322e-02
  -2.11987030e-02 -8.36711284e-03  3.01449690e-02 -3.48846279e-02
   1.19788229e-01 -6.96469918e-02 -7.30591565e-02 -4.60443879e-03
   1.91473901e-01  1.16132526e-02  5.99048985e-03 -4.25629206e-02
  -8.51800740e-02 -6.10581301e-02 -6.61371788e-03 -7.82731697e-02
  -7.62434397e-03  1.08825648e-02 -1.28990635e-02  1.94568038e-02
  -1.09977521e-01 -5.69993891e-02  4.13205512e-02 -3.26411761e-02
   7.72239417e-02 -5.17832972e-02 -4.17492054e-02  2.23839581e-02
  -1.72570758e-02 -5.20209335e-02  3.95945311e-02  6.63544098e-03
  -3.37472022e-01 -7.41411150e-02 -3.79254743e-02 -3.56107019e-02
  -3.09230015e-03  1.62720438e-02 -3.67829353e-02 -9.02109139e-04
   1.94702782e-02 -7.89779499e-02 -6.96416274e-02 -3.20591927e-02
  -5.35242818e-02 -1.19400462e-02 -3.09797525e-02 -1.11924615e-02
   7.47364759e-03 -4.10504546e-03 -6.64737821e-02  1.58735756e-02
  -1.51140755e-02 -7.42292330e-02 -2.74679989e-01 -5.15721701e-02
  -3.58174406e-02 -1.61560569e-02 -5.24947047e-02 -1.69592891e-02
   1.01300128e-01 -9.42456350e-03 -4.95419353e-01 -4.35256921e-02
   1.44547671e-02 -7.53289387e-02 -2.67171059e-02 -9.15081427e-02
   1.06414206e-01  2.73629520e-02  4.71833833e-02  5.38470410e-02
  -3.45460176e-02 -7.20835403e-02 -4.51103076e-02  5.70744835e-02]
 [-6.81308582e-02 -1.31535353e-02 -4.29026857e-02 -4.88166325e-03
  -6.82626292e-02 -3.96528170e-02 -2.31395978e-02 -7.15699866e-02
  -1.13257198e-02 -1.01977438e-01 -2.61460450e-02 -7.07076937e-02
  -1.52996862e-02 -4.26865257e-02  2.17435695e-02  7.72626232e-03
  -5.52315079e-02 -3.59645560e-02  1.31578222e-02 -8.12157542e-02
   3.05564143e-04  3.32703702e-02 -2.94803400e-02 -1.26272440e-02
  -5.92081100e-02 -8.79678577e-02 -3.75993997e-02  3.05220368e-03
   2.09233500e-02 -6.89794049e-02 -7.83769935e-02 -6.99413940e-02
  -6.38977215e-02  3.19476947e-02 -5.34966812e-02  2.51422990e-02
  -2.92316899e-02 -9.81423482e-02 -2.54770741e-02  1.48750022e-02
  -1.30088590e-02 -3.39363627e-02 -7.73454532e-02 -7.63085261e-02
   1.86690260e-02  2.53972169e-02 -2.47423467e-03 -1.59330033e-02
   5.78561507e-04  2.96000624e-03 -4.54902537e-02 -1.40163125e-02
  -7.33193234e-02 -6.14185296e-02 -4.84696217e-02  2.07988381e-01
  -1.03140753e-02 -1.87758282e-02  4.27740924e-02 -7.00504631e-02
  -2.11353570e-01 -4.99094948e-02 -5.94422892e-02  4.73701628e-03
  -3.88447493e-02  4.36638994e-03 -3.32840197e-02  3.65091600e-02
   1.18214684e-02  4.75227367e-03 -1.94247067e-02 -1.56744104e-02
  -5.02191819e-02 -8.78454149e-02 -1.70043647e-01 -7.01140389e-02
   2.72692531e-01 -6.51058033e-02 -7.22231939e-02  4.29845266e-02
  -1.60332285e-02 -6.05659597e-02  8.79298970e-02 -7.61285871e-02
  -1.61309540e-02 -9.65267792e-03  1.34009691e-02  2.62951795e-02
   1.79653820e-02  7.37655023e-03 -5.30905649e-02 -1.08837277e-01
  -3.85353081e-02 -3.19020078e-02 -7.70108029e-02 -3.67807187e-02
  -5.04943021e-02  1.15990713e-02 -5.27181476e-02 -9.28784162e-03
  -9.66487750e-02 -9.70251635e-02 -9.00036469e-02 -4.04529534e-02
  -2.63487220e-01 -1.37932701e-02  1.42782032e-01 -2.22352184e-02
  -3.35274972e-02 -8.80513042e-02 -3.98213938e-02  8.21435172e-03
   9.06758904e-02 -2.40659844e-02 -5.07979542e-02 -1.83401331e-02
  -5.03774174e-02 -8.38840455e-02  1.28347157e-02 -3.07708029e-02
   1.35009140e-01 -7.38824755e-02  1.93452537e-02 -9.29220393e-03
  -4.19493392e-02 -2.99752355e-02 -1.30964899e-02 -9.79076512e-03]
 [-2.37631053e-02  1.04513178e-02  4.35200799e-03 -6.39059395e-02
  -1.21841982e-01 -2.77278632e-01 -2.88064349e-02 -4.36527357e-02
  -8.77778307e-02 -1.34530693e-01 -6.56771734e-02  4.89832973e-03
   1.15186116e-02 -1.36705130e-01 -4.42250110e-02 -2.89497264e-02
  -4.54419143e-02  9.19347350e-03  3.36081609e-02 -3.63939404e-02
  -5.47331087e-02  2.59027407e-02  3.68862003e-02  3.06750610e-02
   3.09487656e-02  1.40826255e-02  1.06968619e-01 -1.86933875e-02
  -5.73427230e-02 -7.67049938e-02 -4.79467101e-02  1.55258682e-02
  -2.11301614e-02 -2.10267007e-02 -5.75940125e-02 -2.12482512e-02
  -2.84076501e-02 -6.49409741e-02 -5.18652499e-02 -2.90341899e-02
  -3.72466296e-02 -2.39933957e-04 -1.01640890e-03 -5.20066544e-02
   1.69608667e-02 -3.47925685e-02 -1.84141751e-02 -1.21364586e-01
  -3.30122858e-02 -3.82500216e-02  8.55675563e-02 -5.52313924e-02
   3.90370302e-02  2.67919973e-02 -6.97267205e-02 -1.93226170e-02
  -2.22448353e-02 -4.89239232e-04 -2.47257622e-03 -7.78073296e-02
   1.08633317e-01 -5.32187009e-03 -2.23292764e-02 -3.29677910e-02
  -1.31160878e-02 -5.22253700e-02 -7.98440874e-02 -7.20042810e-02
   6.58176653e-03 -8.70638415e-02  3.98588143e-02 -3.70839611e-02
  -2.17641592e-02 -4.11232337e-02 -9.23575163e-02  5.10814674e-02
   6.80206940e-02 -2.78521143e-02 -3.30346189e-02 -9.24880151e-03
   4.45103608e-02 -8.92812535e-02 -7.37361237e-02 -2.19181217e-02
   2.67366283e-02 -2.41417568e-02 -4.30694893e-02 -4.86867279e-02
  -4.81948070e-02 -8.21598023e-02 -5.88434562e-02 -3.07305958e-02
  -3.92513089e-02 -1.57612897e-02 -1.85813592e-03 -2.50894632e-02
  -5.58047183e-02  2.77389772e-02 -7.17746317e-02 -7.99678359e-03
  -7.98429474e-02  6.98333755e-02 -6.84399391e-03  1.44137526e-02
  -8.52204561e-02 -7.66132697e-02  6.38951883e-02 -2.91337185e-02
  -5.38482331e-03 -7.00910464e-02 -1.31824866e-01  4.89541031e-02
  -7.31413215e-02 -8.20272416e-02  1.05990032e-02 -7.73642585e-02
   2.64325086e-02 -4.98972051e-02 -5.18947095e-02 -5.51619492e-02
  -9.46087912e-02 -3.15931216e-02  2.72946745e-01 -9.65594873e-03
   1.06150145e-02  1.79423634e-02 -1.59403104e-02 -4.75774966e-02]
 [ 1.20419823e-02 -6.58798441e-02  6.69045076e-02 -7.79121444e-02
   1.97310857e-02 -7.52096856e-03  4.04795835e-04 -2.97706369e-02
  -4.85601230e-03  2.68355366e-02 -6.46900460e-02 -4.62330207e-02
  -3.33728790e-02 -6.34111697e-03 -2.42188144e-02 -4.42407019e-02
  -5.08778132e-02  7.29909586e-03 -6.64429590e-02 -3.32960784e-02
  -2.58326973e-03 -5.22924922e-02  4.36968543e-02 -5.56530878e-02
  -1.34065859e-02  1.35655608e-02 -2.99096610e-02 -1.49903363e-02
   3.10398508e-02  9.80422553e-03  3.58354710e-02 -5.72496317e-02
  -6.09553680e-02  3.92694101e-02 -7.45151713e-02 -3.20920758e-02
  -7.61411116e-02 -3.03594656e-02 -6.36353493e-02 -2.31680330e-02
  -4.34675515e-02 -6.92344382e-02 -6.59612492e-02 -1.46786300e-02
  -5.45371845e-02  3.30856517e-02 -2.94909384e-02  7.89014101e-02
  -1.15605455e-03  1.65160783e-02 -6.36175796e-02 -6.73153717e-03
  -4.33309190e-02 -4.50943671e-02 -8.50088447e-02 -3.08938354e-01
   1.41344788e-02 -9.08749774e-02 -2.83809304e-02  3.76257300e-02
  -4.56533521e-01  1.37137007e-02  4.79574315e-02 -3.21795642e-02
   2.04461645e-02 -6.72035888e-02 -5.60496897e-02 -4.54994105e-02
  -6.98221326e-02  1.03797542e-03 -7.21432269e-02 -1.91899447e-03
  -7.08664022e-03  4.20025317e-03 -1.41339734e-01 -1.03338443e-01
   1.22485071e-01 -8.12833384e-02 -7.65398815e-02 -7.16361851e-02
   3.61855188e-03 -2.66245995e-02 -1.08483076e-01 -9.68619809e-02
   1.19426601e-01 -7.98477009e-02  2.38613058e-02 -8.22040439e-02
   1.49538927e-02 -8.77863318e-02 -4.12659980e-02 -8.21646675e-02
  -2.26701628e-02 -4.80911955e-02 -8.23999420e-02 -3.50796767e-02
  -4.54415707e-03 -3.24266963e-02 -5.87661937e-02 -1.70917287e-02
  -4.52084690e-02 -7.47748613e-02  2.09291070e-03 -1.20989271e-02
  -3.01046520e-01 -3.73892561e-02  1.63644508e-01 -1.62552726e-02
   2.23210696e-02 -2.61971746e-02  9.98353958e-02 -4.34038751e-02
   7.25845098e-02  8.48487311e-04 -3.89574235e-03 -4.68140505e-02
   4.88752760e-02 -5.59777878e-02  6.10094937e-03 -2.65746526e-02
  -1.31575033e-01 -6.48417100e-02 -1.23714432e-01  2.80571356e-02
   8.72236397e-03  6.19128859e-03 -7.00835437e-02 -3.50558087e-02]
 [ 2.61684023e-02 -4.14710045e-02  1.44870216e-02  3.08503546e-02
   1.30188555e-01 -1.15441993e-01  2.09879205e-02 -1.06185935e-02
   3.56652401e-03 -8.53984207e-02 -2.77728103e-02 -2.50223186e-02
  -4.33860011e-02 -5.71634509e-02 -1.31225698e-02 -4.99085672e-02
  -3.65096293e-02 -1.86991058e-02 -1.53569691e-02 -3.82202007e-02
  -8.96140113e-02 -8.78132060e-02 -4.61129472e-02 -6.43064305e-02
   5.81032410e-02 -9.36589614e-02  1.09122671e-01 -1.42285787e-02
   5.08734956e-03 -7.97599703e-02 -9.08073783e-03 -4.02652696e-02
   1.48931751e-03 -1.28970267e-02 -7.66510144e-02 -8.85773525e-02
  -5.66455014e-02 -3.38202193e-02 -3.40585294e-03 -6.11319952e-02
   8.30089208e-03 -3.58093008e-02 -3.92954908e-02 -1.08836051e-02
  -8.23460668e-02  3.81726511e-02 -1.50525160e-02 -1.06513500e-01
  -1.15368515e-01 -3.81224304e-02  3.06699667e-02 -5.37500642e-02
  -8.70578587e-02  4.61328030e-02 -1.29111344e-02 -8.51900280e-02
   1.17632188e-01  3.55700739e-02  2.14883443e-02 -6.51582843e-04
  -9.42336991e-02 -2.83919722e-02  3.52243409e-02  5.41761816e-02
  -8.63840207e-02 -8.70659351e-02 -6.97674826e-02 -1.12892836e-02
  -5.93886850e-03 -2.74021234e-02 -1.63493436e-02 -4.64597065e-03
  -6.09906912e-02 -1.83905177e-02 -3.96519862e-02 -6.18583933e-02
  -2.73422003e-01 -3.64597626e-02 -5.57852760e-02 -3.99054438e-02
  -8.79233778e-02 -7.54584074e-02 -3.32792729e-01 -1.73565760e-01
  -6.89876452e-03 -2.02749353e-02 -7.40734339e-02 -3.95951094e-03
  -4.17401642e-02 -7.76976719e-02 -3.61486413e-02  1.27160475e-02
  -4.43027681e-03 -4.30759192e-02 -3.82542685e-02 -9.10856649e-02
  -4.45885882e-02 -5.17988764e-02 -2.55895015e-02  1.28418095e-02
  -1.66870665e-03 -3.59449424e-02  2.14653779e-02 -2.29635742e-02
   2.55352184e-02 -6.42104000e-02 -6.28640056e-02 -6.05202988e-02
  -4.40780595e-02 -2.17664950e-02 -2.42147341e-01 -2.90894229e-02
  -4.05231059e-01  3.57783958e-03  2.41003931e-01 -5.71113788e-02
  -5.82790039e-02  1.87607445e-02 -1.01453915e-01 -3.17686722e-02
  -1.90440074e-01 -2.21373253e-02  3.05803269e-01 -3.84925082e-02
  -2.11082529e-02 -2.64415927e-02 -2.30862889e-02 -1.43947350e-02]
 [ 2.16823593e-02  6.07658736e-02 -4.18895036e-02 -8.31418764e-03
  -3.11695307e-01 -3.20157617e-01 -5.29500991e-02  2.44267117e-02
  -4.27014381e-03  1.12082936e-01 -2.15410180e-02 -2.30236817e-02
   2.43398845e-02 -1.04242191e-01 -3.17658335e-02 -2.85747163e-02
  -2.19610035e-02  4.22521774e-03 -5.39576169e-03 -3.61361578e-02
  -1.59769002e-02 -3.94447334e-03  3.65375802e-02 -7.90629908e-02
  -2.37333942e-02 -5.07135913e-02  3.00251067e-01 -6.59330050e-03
  -8.39898959e-02 -9.61975306e-02 -7.02529103e-02 -4.22005653e-02
   2.33984552e-02 -4.90058288e-02  1.14444578e-02  9.19084903e-03
  -7.68337026e-02 -6.45495132e-02  3.45937465e-03 -7.95676559e-02
  -4.87560518e-02  1.59101803e-02 -7.07416981e-02  1.18062012e-02
  -5.08209318e-02 -3.27619091e-02  2.68868655e-02 -7.28435963e-02
  -4.46632281e-02 -7.43001848e-02 -3.26355500e-03 -4.63623442e-02
   4.57765125e-02 -4.45166193e-02 -7.53356814e-02  1.10153459e-01
   1.89673379e-01 -1.26310112e-02 -9.60149691e-02  1.06338654e-02
   8.49938020e-02 -6.56673536e-02 -4.10956442e-02 -5.91711327e-02
  -8.15421790e-02  1.40704187e-02  6.08149683e-03 -6.78515881e-02
  -1.71392914e-02 -2.44491803e-03 -3.01591773e-02  1.09425641e-03
  -7.74866790e-02 -8.85479078e-02  1.61292344e-01  6.31473213e-02
  -3.29726189e-01  3.31014283e-02 -6.76293373e-02  7.35943299e-03
   7.34908804e-02 -5.70530221e-02  1.71112816e-03 -1.37372594e-02
   4.13483471e-01  2.70255450e-02  3.13287452e-02  6.08552434e-03
  -2.37898827e-02  1.13073196e-02 -1.45725701e-02 -9.88898650e-02
  -8.98314118e-02 -1.14030084e-02  7.50097353e-03 -1.06881291e-01
   3.04046459e-02  8.97582900e-03 -8.11961070e-02  1.71387680e-02
  -1.95948556e-02 -2.60037240e-02 -8.63937140e-02 -2.90629249e-02
  -3.33778024e-01 -3.41819739e-03  1.86750636e-01 -7.63947219e-02
   6.54724836e-02  2.14496367e-02 -2.73848921e-01 -6.26762286e-02
   7.85114914e-02 -8.39739516e-02  6.88418150e-02 -5.82160205e-02
  -6.64737308e-03  1.72151923e-02 -9.54056084e-02  9.56104079e-04
  -1.68557584e-01 -5.58647402e-02  1.37200117e-01 -3.36250775e-02
  -5.01894280e-02 -3.60039845e-02 -4.70858514e-02  5.39640859e-02]
 [ 2.60936096e-02 -3.37022096e-02 -9.31090396e-03  6.09896369e-02
   1.67153776e-02 -1.34135991e-01 -7.45494068e-02  3.06611825e-02
   2.24668742e-03  5.92921190e-02 -7.40328506e-02 -7.93092027e-02
  -3.42755243e-02  2.01343354e-02 -4.68902402e-02 -3.92470285e-02
   1.23596080e-02 -1.39862476e-02  5.27433082e-02 -3.12604010e-02
  -2.92181801e-02  1.00192381e-02 -2.80592710e-01  2.20938921e-02
  -1.56582370e-02 -6.34901272e-03 -5.04260421e-01 -9.07961503e-02
  -4.21716971e-03 -3.56279612e-02 -5.33862710e-02 -5.85952848e-02
  -4.97321449e-02 -7.55813718e-02 -7.52224624e-02 -6.95856661e-02
   3.15611549e-02 -4.47358340e-02 -5.97546734e-02 -2.12522559e-02
  -4.17754129e-02 -3.48019525e-02 -5.00976220e-02 -4.17348593e-02
  -1.99355427e-02  4.78397571e-02 -7.17790052e-02 -6.16800971e-02
  -6.34545460e-02  1.69560476e-03 -7.09903613e-02  2.61418577e-02
  -5.76910265e-02 -4.27932031e-02 -4.65142019e-02  6.50558472e-02
   7.10303313e-04  7.10982457e-02 -5.14372811e-02 -1.30912093e-02
   1.29138067e-01 -7.35046156e-03 -1.06651131e-02 -3.01639363e-02
   1.48872584e-02 -3.18577811e-02 -7.49276355e-02 -2.24900078e-02
  -7.31912702e-02 -2.73894165e-02  4.14370559e-02  2.30902713e-02
  -6.81302398e-02 -8.27138647e-02 -2.09153499e-02  2.95934789e-02
   5.09066619e-02 -2.26061046e-02 -5.79029620e-02 -4.73590903e-02
   5.05398475e-02 -4.27800603e-02 -2.84296665e-02 -9.50462371e-02
  -7.66859800e-02 -7.06721842e-02  3.25247040e-03 -8.90527219e-02
  -4.77579534e-02  2.05708761e-02 -3.94159183e-02  5.55315055e-02
  -2.70944312e-02  2.23359689e-02 -5.62896132e-02 -7.31157139e-02
  -9.52565148e-02  9.83291212e-03 -8.64663254e-03  1.84098743e-02
   3.21432352e-02 -4.69307415e-02  1.31189851e-02 -9.60550271e-03
   5.29126488e-02 -2.54672058e-02 -2.81320959e-01  2.51842141e-02
   4.85230573e-02 -2.48899926e-02 -5.80546521e-02 -1.19154481e-02
   1.31718814e-01  2.27057375e-02 -3.03910077e-01 -6.12461194e-02
   7.86611624e-03 -9.22108069e-02 -7.04518333e-02  6.60866778e-03
  -5.30776680e-02 -8.67435485e-02  4.67499979e-02  1.18104182e-02
  -3.41556370e-02 -1.03216656e-02 -2.62651909e-02 -5.07784151e-02]
 [-7.92673752e-02 -3.77058052e-03  7.11235330e-02 -3.10536958e-02
   1.13770934e-02 -4.14201207e-02 -7.95163140e-02 -4.64418679e-02
  -1.41359875e-02 -1.62907168e-02 -3.69878043e-03  2.69649737e-02
   1.84329804e-02  2.27032024e-02 -2.39632707e-02 -7.71844294e-03
  -4.41808514e-02  1.26861725e-02  3.91958766e-02 -6.40975013e-02
  -7.22803827e-03 -2.05140337e-02  5.96611798e-02 -1.89316086e-02
  -5.77272549e-02 -6.64814264e-02 -1.24213517e-01 -1.58027690e-02
  -5.11227129e-03 -1.53173646e-02  1.28316060e-02  1.90849099e-02
  -3.57238874e-02  2.44968291e-02 -8.32488611e-02 -9.10235494e-02
  -7.09715113e-02 -8.84545445e-02 -1.04106134e-02  3.19538563e-02
   2.47917734e-02  1.59364771e-02 -5.95005788e-02  1.85720492e-02
  -5.91615140e-02  3.10533214e-02 -2.27156351e-03  1.22315913e-01
  -1.42251533e-02 -1.19516989e-02 -4.18822616e-02 -6.87451335e-04
  -1.52645102e-02 -7.49967322e-02 -2.07396094e-02  2.08583370e-01
   1.03756018e-01  1.28179612e-02  1.47065399e-02 -3.32590053e-03
  -2.67275155e-01 -3.18300202e-02  2.95687988e-02 -3.94484177e-02
  -2.56647822e-03  1.19024084e-03 -1.71311460e-02 -6.68005049e-02
  -4.55706641e-02  2.25632675e-02  1.86246429e-02 -4.18810593e-03
   3.36507778e-03 -6.29514754e-02  1.50363119e-02 -9.40842405e-02
   2.27126509e-01  2.21151859e-02  2.93553136e-02 -7.30576143e-02
  -1.27515988e-02 -5.52958772e-02  6.35815337e-02 -4.17748764e-02
   8.52496549e-02 -6.84248731e-02 -4.97110710e-02 -6.70737177e-02
  -2.73757987e-02 -7.30763227e-02 -8.87720939e-03  1.27445133e-02
  -1.44004887e-02 -4.19943407e-02 -3.66297215e-02  1.25695560e-02
  -5.84745333e-02 -3.71377580e-02 -7.56215826e-02 -6.63281083e-02
  -3.63493189e-02 -5.32467030e-02 -3.44690345e-02  3.33230756e-02
  -3.56689334e-01  1.95307638e-02  1.30805254e-01  1.23098539e-02
  -6.43910095e-02  1.89061189e-04 -1.18450440e-01 -7.99295679e-02
   4.11956795e-02 -4.06528227e-02  1.40721306e-01 -2.05842089e-02
   1.32803933e-03 -1.01351194e-01 -5.86656779e-02  2.34178249e-02
   7.64627904e-02 -8.52787048e-02  1.40272006e-01 -3.61208469e-02
  -1.02824256e-01 -1.39445141e-02 -3.94700021e-02 -2.47621890e-02]
 [-6.44337609e-02 -4.98930402e-02 -3.46539468e-02 -2.70815026e-02
  -2.61702001e-01 -2.73736537e-01 -2.80473474e-02 -5.42271100e-02
  -6.01225905e-03 -1.54928878e-01 -3.41664031e-02 -6.72016442e-02
  -7.70522803e-02 -7.35292733e-02 -6.20303564e-02 -3.40474918e-02
  -3.71787772e-02 -1.07669672e-02  4.06942703e-02 -7.87590891e-02
  -4.92267795e-02  2.10337024e-02  9.48618874e-02  4.23037261e-02
  -3.66485491e-02 -9.44017693e-02  7.51072243e-02  5.70663884e-02
  -7.52718896e-02 -1.03815366e-02 -5.37821725e-02 -6.95134178e-02
  -5.58641739e-02 -2.24186219e-02 -4.91432957e-02  4.38620746e-02
  -2.58672256e-02 -2.24125441e-02 -4.37125862e-02 -4.19224501e-02
   3.12995538e-02 -6.39677793e-02 -8.85350108e-02 -6.17533475e-02
  -7.44257472e-04 -8.27978030e-02 -6.91805258e-02 -7.47195929e-02
  -3.04116147e-05  1.10976025e-02  3.35083157e-02  5.33697021e-04
  -4.71140025e-03  4.83958609e-03 -1.07773847e-03 -6.69610202e-02
   3.31676193e-02  7.05681101e-04  1.35192163e-02 -7.79826492e-02
   1.33275008e-02 -8.89557973e-03  3.58939059e-02  3.42933461e-02
  -1.08154071e-02  4.29910459e-02 -8.48433077e-02 -2.31119036e-03
  -4.32225987e-02 -8.59927200e-03  4.22872566e-02  1.49718439e-02
  -4.93125729e-02 -6.67449087e-02  1.76764317e-02 -1.87274888e-02
   1.63452215e-02 -4.18880023e-02 -8.65065753e-02 -3.54798213e-02
  -9.52109694e-03 -8.03781971e-02  4.46868502e-03 -6.55572340e-02
   1.66384384e-01 -4.57699671e-02  2.76483931e-02  3.44895460e-02
  -3.27449217e-02 -9.15225595e-02  6.46125972e-02 -6.78577572e-02
  -9.71743092e-02 -4.57883961e-02  5.55988122e-03 -5.98264411e-02
  -4.22563753e-04 -9.02990624e-02 -8.45529959e-02 -5.86852580e-02
   3.52195054e-02  4.97544259e-02 -2.05346886e-02 -3.00544221e-02
  -2.30824370e-02  2.51610577e-02  7.38630965e-02 -5.66845834e-02
   4.22442378e-03  3.52818333e-02 -2.56548494e-01  4.73841541e-02
  -6.04955927e-02 -4.93190326e-02 -7.20102759e-03 -2.48954967e-02
   2.38998290e-02 -3.72171775e-02 -6.88622426e-03 -6.99818954e-02
  -1.06789753e-01  2.36240178e-02  1.48490995e-01 -8.61136690e-02
  -5.87838702e-02 -8.72602761e-02 -6.58505708e-02 -3.36771607e-02]
 [-3.28788199e-02 -7.79385865e-02 -9.51367170e-02 -2.34308410e-02
  -3.68257351e-02  3.96351479e-02 -1.73182804e-02 -1.20683433e-02
  -7.09961206e-02 -6.28127679e-02 -1.89320166e-02 -4.26260196e-02
   1.24779660e-02 -9.96773615e-02 -3.68724242e-02 -3.52585725e-02
  -7.27678090e-02 -5.75678870e-02  1.00904750e-02 -1.84987448e-02
  -5.77389402e-03 -2.00760365e-02 -3.25994082e-02 -1.56691540e-02
  -7.16756955e-02 -3.20136733e-02 -2.62921527e-02 -3.74433934e-03
  -2.07461994e-02 -1.21737765e-02  4.88160038e-03  2.34669279e-02
  -9.03074965e-02  7.92739520e-05 -6.90471977e-02 -2.70320307e-02
  -1.24753006e-02 -2.72279307e-02 -1.40548144e-02 -3.24262418e-02
  -1.64186060e-02 -4.01303507e-02  2.50065839e-03 -3.27632986e-02
  -5.42930551e-02 -6.96083084e-02  1.92461268e-03  4.32831123e-02
  -6.37019128e-02 -6.85937852e-02  7.11367279e-03 -6.16332218e-02
  -6.29343316e-02 -1.37206949e-02 -2.81315129e-02 -2.19262272e-01
   3.05162445e-02  5.32155437e-03 -4.86057550e-02 -9.04173404e-02
  -3.91090363e-01 -8.86955261e-02  2.87849046e-02  1.57114640e-02
   2.13712212e-02 -5.65711074e-02 -3.73595767e-02 -6.67742267e-02
  -8.36288631e-02 -1.49782291e-02 -4.46323045e-02 -7.47750252e-02
  -4.40928228e-02 -7.00174496e-02 -9.09038633e-02 -6.96927086e-02
  -6.10739999e-02  3.56417075e-02 -2.90353615e-02  9.60723124e-03
  -1.15324499e-03  1.77199915e-02 -1.44703940e-01 -1.82483554e-01
   1.96769506e-01 -6.98110536e-02 -4.40074392e-02 -1.26366140e-02
  -1.16341282e-03 -5.51760234e-02  1.77906156e-02 -9.77255702e-02
  -7.97743499e-02 -7.05943257e-02  2.80272719e-02 -5.34786750e-03
   2.15189289e-02 -8.04900303e-02  1.78169971e-03 -8.53675902e-02
  -1.18205119e-02 -4.86348011e-02 -7.36721754e-02 -5.85980788e-02
  -2.16704886e-02 -5.09105669e-03  1.28256023e-01 -2.82810703e-02
   5.11302426e-02  2.55794153e-02  1.18548675e-02  4.62048054e-02
  -5.42140119e-02 -2.73530986e-02  3.67409363e-02  4.58425982e-03
   5.75915910e-02 -5.42059774e-03 -4.02311459e-02 -5.94240287e-03
  -1.56086311e-01  2.50258148e-02 -5.13210595e-02 -6.97392523e-02
  -6.58408087e-03 -7.99750537e-02 -6.10305481e-02  8.03377945e-03]
 [-7.96237290e-02  4.09416445e-02 -7.61109069e-02  4.41623665e-02
   1.17725737e-01 -1.66368634e-02  9.54611320e-03 -8.57292041e-02
   1.24434885e-02 -1.16945669e-01 -2.51049493e-02  3.14598791e-02
  -6.37830272e-02 -1.74555592e-02  5.00242412e-02 -2.30210666e-02
   1.51388608e-02 -1.15907546e-02 -3.22444029e-02  8.45121406e-03
  -3.58981267e-02 -9.42288265e-02 -6.60256073e-02 -1.56234466e-02
   6.23617321e-04 -1.07017599e-01  1.07389726e-01 -2.57194359e-02
  -2.84302123e-02 -9.31429267e-02 -4.65519875e-02 -1.24393916e-03
  -6.09075613e-02 -2.95669250e-02 -6.87608272e-02 -4.67998572e-02
  -6.65106028e-02  3.16763185e-02 -1.20368125e-02 -3.78278270e-02
  -6.30681887e-02 -2.74622254e-02 -4.96868640e-02  1.92496832e-02
  -5.35566062e-02 -4.71052416e-02 -3.24753895e-02 -6.27315044e-02
  -6.11831583e-02 -6.57871068e-02 -6.81909844e-02 -4.28855307e-02
  -2.40427684e-02 -6.83119446e-02 -5.46385795e-02  5.65439276e-02
   8.24051537e-03 -5.41286841e-02 -2.98650563e-02 -1.82747338e-02
  -5.70777021e-02 -4.55081090e-02  2.65568793e-02  1.12203453e-02
  -1.76294520e-02 -5.06470539e-02  6.44854223e-03 -3.29046138e-02
   5.64075727e-03 -7.49960635e-03  2.42077913e-02 -4.67632338e-02
  -9.50534195e-02 -3.61321284e-03 -1.27374172e-01 -4.79785949e-02
  -2.14136302e-01 -7.31519237e-02 -2.16385573e-02  5.77605553e-02
   4.08385023e-02 -2.44690068e-02 -2.91294813e-01 -7.69980773e-02
   3.84944156e-02 -5.40320016e-02 -2.11390760e-02 -5.75327203e-02
   2.42441520e-02 -8.76199380e-02  1.67017395e-03 -6.53203428e-02
  -7.69438520e-02 -7.52954930e-02 -9.02353749e-02 -9.71517414e-02
   1.32585671e-02 -5.02938703e-02 -2.94440445e-02 -9.53880232e-03
  -2.27140682e-03  6.23731175e-03 -4.79706079e-02  2.03547701e-02
   1.31583139e-01 -7.03733489e-02 -8.27350989e-02 -8.59253258e-02
  -2.71465220e-02  1.87413674e-02 -1.38247594e-01 -6.83374032e-02
  -1.88737780e-01 -5.39186113e-02  2.96036690e-01 -7.73377717e-02
  -6.00066185e-02 -7.92500004e-02 -6.44078925e-02 -1.04191527e-01
  -4.00723040e-01 -2.96660792e-02  1.31669059e-01  7.21230824e-03
  -4.07306626e-02 -1.59769692e-02 -3.41883488e-02 -6.47293627e-02]
 [-1.34278834e-02  1.71505194e-02 -7.97778890e-02 -3.13554034e-02
  -2.28869945e-01 -5.75589128e-02 -5.31198569e-02  2.32916512e-02
  -3.66776772e-02  2.18708247e-01 -4.12723832e-02 -3.66368219e-02
  -3.62355299e-02 -5.13932630e-02 -4.99971658e-02  2.26077922e-02
   2.31574439e-02 -3.43775451e-02  2.63848845e-02 -3.31025477e-03
  -5.51495366e-02 -4.47491519e-02  2.33105898e-01  2.55763456e-02
  -4.42336053e-02 -5.27613647e-02  1.36700310e-02  1.21451067e-02
  -7.28645027e-02  9.32105724e-03 -7.64187500e-02 -3.12694758e-02
  -3.09489369e-02 -8.22357610e-02 -6.24523647e-02 -6.31851330e-02
  -2.94630900e-02 -9.93883461e-02 -6.26628026e-02 -1.55943986e-02
  -3.19939591e-02  4.32540178e-02 -7.54654929e-02 -3.43344919e-03
   1.23876529e-02 -1.94510650e-02 -6.26657531e-02 -1.60779860e-02
   4.32375632e-03 -1.97608024e-02 -1.35292970e-02 -4.34877612e-02
  -1.08172875e-02 -7.47319832e-02 -4.18115705e-02 -8.39674175e-02
   2.79011518e-01  9.58665833e-03  1.10997595e-02 -7.83776417e-02
   1.81458965e-01 -4.47081998e-02  6.52749836e-02 -5.23640141e-02
  -8.21358487e-02 -4.58346382e-02  1.47818783e-02 -9.13112685e-02
  -4.99040000e-02 -7.57031366e-02 -3.11931875e-02 -8.53351727e-02
  -2.79957578e-02 -2.24705059e-02  1.23241588e-01 -5.05490750e-02
  -4.89215046e-01 -6.07874654e-02 -6.00852594e-02 -6.49549663e-02
  -2.66993102e-02 -7.23415092e-02  1.41802311e-01  1.25323564e-01
   2.96357751e-01 -8.09957013e-02 -2.06256192e-02 -5.77689484e-02
   1.39586842e-02 -4.03517075e-02 -6.38482645e-02 -3.67120467e-02
  -7.62533396e-02  4.75994963e-03 -4.53270376e-02 -3.14303152e-02
  -2.55378522e-02 -1.53882261e-02 -1.78266112e-02 -6.99748248e-02
  -7.85624608e-02 -8.50129947e-02  3.02497298e-03  2.17467244e-03
  -5.37151575e-01 -4.86154109e-02  1.60889626e-01 -2.12725308e-02
   3.35306898e-02 -5.71744367e-02 -3.93807918e-01 -6.55978695e-02
  -2.65551507e-01 -7.32808709e-02 -4.30640727e-02  3.97898984e-04
  -1.40331192e-02 -2.18801573e-02 -4.92274649e-02 -6.14159741e-02
   4.06221785e-02 -4.62523475e-02 -2.53965948e-02 -3.24474648e-03
  -7.83365518e-02 -7.51763582e-03 -6.81896210e-02  4.84568849e-02]
 [-1.44817866e-02 -2.66855191e-02 -3.84264402e-02  2.80870032e-02
  -4.63900715e-02 -1.55622751e-01 -2.38594003e-02  4.69690524e-02
  -4.59416024e-03 -4.99625988e-02  2.23707873e-03  8.50325637e-03
  -1.24572171e-02 -3.40851620e-02  2.76485831e-02 -5.20975329e-02
  -8.76508430e-02 -1.87678654e-02 -2.50316248e-03 -4.97179180e-02
  -8.82970914e-02  1.33876260e-02 -2.82786459e-01  3.88768241e-02
   3.59421000e-02 -3.76721956e-02 -3.82703066e-01 -4.38807905e-02
  -8.83681874e-04 -8.13913122e-02 -9.85084102e-03  2.12111999e-03
  -1.96878053e-03 -1.01294339e-01 -3.99257615e-02  1.45861618e-02
  -1.72290113e-03 -1.35282595e-02 -8.49881545e-02 -6.43269494e-02
  -3.40758190e-02 -4.45771627e-02 -3.96002531e-02 -3.21969315e-02
  -8.39804783e-02 -5.39123192e-02 -7.04043582e-02 -8.81279781e-02
  -6.19471893e-02  2.67909244e-02 -1.90771408e-02 -4.19087783e-02
   7.18169101e-03 -5.05335368e-02 -1.70525201e-02  3.71071398e-02
  -5.51627539e-02  1.39717255e-02 -6.39509335e-02 -5.03639914e-02
   1.60349831e-01 -1.46582657e-02  3.18339206e-02  6.69697374e-02
  -7.17706466e-03 -2.43076999e-02 -6.83394521e-02 -7.69942477e-02
  -3.07314917e-02  2.06773393e-02 -2.59905844e-03 -7.27210119e-02
  -2.23151054e-02 -8.62813741e-02 -6.99301884e-02  1.25599289e-02
   9.06961039e-02  1.43785765e-02 -9.19510126e-02 -1.72381960e-02
  -3.76325846e-02 -7.73267001e-02 -6.88503385e-02 -1.05805211e-02
  -1.26700671e-02  2.99274991e-03 -7.13274181e-02 -7.00113997e-02
   2.52565518e-02 -8.18673447e-02 -7.27667566e-03 -4.63011302e-02
  -4.39840257e-02 -2.99414666e-03 -5.27424887e-02 -5.05081154e-02
  -1.09888930e-02  3.70338410e-02 -3.91009003e-02 -3.49920243e-02
   5.69273438e-03 -1.11102397e-02 -4.46607098e-02 -9.31409374e-02
  -9.03460458e-02  4.94174077e-04 -9.44413096e-02 -1.58841107e-02
  -5.33887185e-02 -7.29762465e-02 -1.50963455e-01 -4.66040373e-02
   5.34895137e-02 -1.93228815e-02 -1.79643914e-01  1.73946898e-02
  -3.61516811e-02 -7.89388195e-02 -6.97923824e-02  2.08237078e-02
  -1.59184262e-02 -5.01395613e-02  6.60435706e-02  9.12492070e-03
  -4.37190011e-03  2.41796412e-02 -2.20169546e-03  1.33411186e-02]
 [-2.86027435e-02 -2.92472988e-02  8.18802603e-03  7.07571890e-05
  -5.76695092e-02  6.19199243e-04  1.63226482e-02  1.52347167e-03
  -6.31839084e-03 -7.03566670e-02 -2.98802350e-02 -6.03530519e-02
  -3.72345448e-02  2.01757029e-02 -2.43673958e-02 -7.10500777e-02
  -5.47724850e-02 -1.34565001e-02  3.19985524e-02 -5.73173389e-02
  -7.40708932e-02 -7.33568966e-02 -4.44940403e-02 -7.01340884e-02
  -4.89113443e-02 -1.52859204e-02  1.31640239e-02 -4.05966155e-02
  -4.14282009e-02  1.47858532e-02  8.87335371e-03 -4.79280166e-02
  -1.13598585e-01 -9.21881050e-02 -7.09701926e-02 -4.44800667e-02
  -6.89196885e-02 -1.92575380e-02  1.54160485e-02  4.03448800e-03
  -3.64679880e-02 -5.04980609e-02  3.43610793e-02 -7.36256763e-02
  -5.90144470e-02 -2.88619380e-02 -7.00560361e-02  8.97879004e-02
   2.41616219e-02 -5.79079874e-02  9.01632375e-05 -2.39989646e-02
  -1.74448006e-02 -2.00702380e-02  2.54285857e-02  1.70583740e-01
  -9.10989847e-03  5.37387514e-03 -1.96743160e-02  5.47658056e-02
  -1.02538101e-01  2.16404758e-02 -9.46018100e-02 -9.70245302e-02
   2.67225504e-02 -1.89768132e-02 -3.06968968e-02  1.88888516e-02
  -7.57790878e-02 -2.17656195e-02  1.38179194e-02  7.13873189e-03
  -9.00215209e-02  2.35952940e-02 -9.02538970e-02 -8.08065310e-02
   1.53546795e-01 -5.52780787e-03 -3.86427902e-02 -6.21880591e-02
  -3.31857130e-02  7.86512159e-03  5.86355180e-02 -7.91943595e-02
  -3.16471197e-02 -5.25436830e-03  7.39770848e-03 -5.73654398e-02
  -4.18475010e-02 -8.84773135e-02  1.65527929e-02 -2.54046153e-02
  -8.41140300e-02 -4.91017662e-02 -1.06257712e-02 -6.43499419e-02
  -1.55406110e-02 -8.86359811e-02  1.02835940e-02  2.34422218e-02
  -3.62576991e-02 -7.05271959e-02 -7.08308518e-02 -5.23909042e-03
  -2.80991226e-01 -5.02506755e-02  1.76108647e-02 -6.91736564e-02
   2.65144780e-02 -7.36955851e-02 -1.53638385e-02 -5.31201549e-02
   5.54050654e-02 -4.89867851e-02  1.59138545e-01 -4.96492013e-02
  -2.07594857e-02  1.42873609e-02  2.51760939e-03 -5.93612716e-02
   8.00046772e-02 -5.18067777e-02  1.44733414e-01 -7.60872215e-02
  -8.85178149e-02 -7.31107518e-02 -2.13504899e-02 -5.27552282e-03]
 [-6.18459098e-03 -4.11960483e-02  6.48311386e-03 -1.80140173e-03
  -1.34943709e-01 -1.82782650e-01 -5.86875156e-02 -5.94769744e-03
  -5.75681701e-02 -2.73826122e-01 -8.90773013e-02 -4.56523858e-02
  -3.96415666e-02 -1.28887221e-01 -5.73505312e-02 -8.35828334e-02
   1.56791471e-02  1.02492804e-05 -8.06184262e-02 -8.30551386e-02
  -5.06709069e-02  2.36000698e-02 -2.09617559e-02  5.69444895e-03
  -1.36761218e-02 -2.52496395e-02  1.60114944e-01 -6.04689121e-04
  -7.29189068e-02 -1.07142478e-02  2.93582473e-02 -3.35654952e-02
  -5.33256121e-02 -2.69007217e-02  1.71872601e-02 -3.82465459e-02
  -1.71806775e-02 -4.35521593e-03  4.96716984e-03 -1.79220829e-02
  -1.87989790e-02 -5.23031764e-02 -2.90446589e-03 -2.94951927e-02
  -4.52084467e-02 -6.95958734e-02 -1.03855409e-01 -6.15924075e-02
   2.22195666e-02 -7.42509365e-02 -3.61981764e-02 -4.35000518e-03
   5.49882539e-02  4.07114290e-02 -5.84704578e-02 -1.21956646e-01
   1.04906008e-01  1.04050362e-03 -1.21733220e-02 -3.25143561e-02
  -6.30960315e-02 -6.55478984e-02  1.94389485e-02  3.19067836e-02
   1.92297194e-02  6.49732351e-03 -6.70576096e-02 -5.88147901e-02
  -4.61709984e-02 -7.78681692e-03 -5.12717701e-02 -4.26346362e-02
  -1.64921302e-02 -4.33394350e-02 -1.30680725e-01  1.66576076e-02
   7.97241032e-02 -6.42201230e-02  4.31434764e-03  1.34310378e-02
   8.25531129e-03 -8.32926854e-02  1.82704572e-02 -6.06304258e-02
   2.26040483e-01 -7.44669065e-02  7.52203315e-02  6.68538269e-03
  -8.11302289e-02 -1.29120890e-02  2.26029474e-02 -1.43739814e-02
  -1.67197902e-02 -4.86955605e-02 -1.49229886e-02  1.54653448e-04
  -6.09874465e-02 -2.50198804e-02 -3.97339426e-02 -8.33221674e-02
  -7.17780292e-02  4.38581109e-02 -3.04481797e-02 -3.95457149e-02
  -4.35458012e-02  2.03729663e-02  6.83910726e-03 -9.17843431e-02
   4.36458141e-02 -6.51381612e-02 -2.65354395e-01 -1.70989148e-02
  -1.55841231e-01 -7.20510706e-02  4.15696464e-02 -9.23142210e-03
   1.42900515e-02 -1.75051913e-02  1.68772563e-02 -6.51215687e-02
  -7.30774552e-02 -2.61381492e-02  4.57727425e-02 -4.00378741e-02
  -9.52468108e-05  2.14611068e-02  2.42602080e-02  7.44845569e-02]
 [ 1.66003946e-02  7.54850879e-02  9.56493616e-03 -2.67805010e-02
   3.37786898e-02  1.14598267e-01 -4.19297703e-02 -5.43291830e-02
  -1.28456503e-02  8.60920474e-02 -3.48426849e-02  1.99770555e-03
  -1.19425990e-02 -1.56499874e-02  1.14770960e-02 -1.02283480e-02
  -8.45754147e-02 -3.59343737e-02 -1.94439664e-02 -4.50295433e-02
  -6.36452138e-02 -1.84694529e-02 -1.23979971e-01 -3.51674519e-02
  -4.12211306e-02 -7.27677271e-02 -9.76912677e-03 -4.81779873e-02
  -7.65682086e-02 -7.51985386e-02 -2.66981181e-02 -6.63696276e-03
  -6.59864694e-02  9.38734878e-03 -5.75797036e-02  1.91959329e-02
  -7.49093806e-03  2.19782274e-02 -8.71720538e-02 -3.94172706e-02
   4.14587036e-02 -1.89256445e-02  1.57941859e-02 -7.85130560e-02
  -1.24581829e-02  2.53912807e-03 -2.48591304e-02 -5.76183684e-02
  -1.38353975e-02 -9.42282900e-02 -3.60597074e-02 -5.04174046e-02
   1.30308075e-02 -3.59446555e-02 -1.24836750e-02 -2.86146700e-01
  -8.49296600e-02  3.04236691e-02 -3.82071733e-02 -3.93516617e-03
  -5.29493801e-02 -3.40947397e-02  2.32761633e-02 -4.63838354e-02
  -6.33484945e-02 -7.75343031e-02 -2.27398309e-03 -3.40408571e-02
  -3.34237143e-02 -5.18045835e-02 -6.26692101e-02 -5.90056665e-02
  -9.24184080e-03 -6.33994564e-02  2.73315869e-02 -2.25221366e-02
  -3.97334509e-02 -4.70962338e-02 -1.16746634e-01  2.07553171e-02
   3.52015644e-02 -6.71125599e-04 -2.04642311e-01 -3.47633690e-01
   1.09930687e-01 -9.03543830e-02 -1.82430795e-03 -7.07496703e-02
  -8.27041119e-02 -3.03033460e-02 -3.53434831e-02  2.60611828e-02
  -5.62557392e-02 -6.06354699e-02 -8.15960467e-02 -8.78210217e-02
  -1.91529505e-02  1.90814100e-02 -5.04478291e-02  6.00546075e-04
  -1.72931999e-02 -7.67565817e-02 -3.14883664e-02 -2.38437653e-02
  -2.70621091e-01 -8.50376382e-05  1.40188619e-01 -7.73331374e-02
  -4.17764410e-02 -5.06055914e-02  7.77469799e-02 -7.13359797e-03
  -8.54312778e-02 -6.71043620e-03 -9.43316296e-02 -6.09339699e-02
   1.68963075e-02 -9.02328640e-02 -2.88594365e-02 -7.13868141e-02
  -1.25482067e-01  2.31138300e-02 -1.50566101e-01 -1.75349694e-02
  -5.12484759e-02 -8.48559663e-02 -8.08644220e-02 -2.12941840e-02]
 [-7.09170103e-02  4.48296033e-02  1.05090633e-01 -1.77611485e-02
  -2.27609240e-02 -2.54074782e-01 -6.50502145e-02 -3.05341054e-02
  -5.26976176e-02 -3.49352770e-02 -2.76278704e-02  1.56011181e-02
  -6.22250214e-02 -3.73589210e-02  4.07115966e-02  2.97742970e-02
  -6.90259114e-02 -5.84862046e-02 -1.17347203e-02 -1.41385533e-02
  -4.69206534e-02  1.96243469e-02 -1.17024444e-01  2.76141483e-02
   1.08775347e-02 -9.27046314e-02  1.08211450e-01  1.06902076e-02
  -1.92392338e-02  1.67264417e-02 -1.75448377e-02 -3.94778103e-02
  -8.32149610e-02  1.85355209e-02  7.11672334e-03 -3.79249044e-02
  -7.56304935e-02  2.62562800e-02 -4.79908548e-02 -8.56418386e-02
  -1.21721290e-02  2.07875725e-02  8.85431468e-03  7.68266153e-03
  -6.59887418e-02 -2.67535765e-02  1.18851932e-02 -3.64602581e-02
  -4.48723808e-02  2.23226957e-02 -7.82574043e-02 -1.13944290e-02
  -3.90008539e-02 -5.38077578e-02 -5.97501136e-02  1.54196071e-02
  -1.19464323e-01 -4.45581563e-02 -3.92575599e-02 -5.81746399e-02
  -1.57074928e-01 -4.97694798e-02  9.52828210e-03  3.73610780e-02
   6.19092071e-03 -1.39333699e-02  6.62612170e-03  8.18967633e-03
   2.57416982e-02 -3.29858549e-02 -5.96064068e-02 -2.73739453e-03
  -4.48244205e-03 -7.10849389e-02 -6.15931824e-02  3.23252976e-02
  -3.45400661e-01 -8.64499509e-02  1.88635364e-02 -6.04728833e-02
  -5.15985675e-02  1.63544156e-02 -1.96260959e-01 -1.82146296e-01
  -6.06545061e-02 -9.54108015e-02 -3.15599665e-02 -7.08913207e-02
  -7.55619779e-02  3.98410065e-03 -9.71432626e-02 -6.15867823e-02
  -8.09450224e-02 -3.04829609e-02  1.23068057e-02 -2.66876835e-02
  -1.76663492e-02 -6.68564141e-02 -6.21672049e-02 -7.80361220e-02
  -3.48542146e-02 -4.19691689e-02 -1.25280134e-02  7.39030819e-03
  -2.82777399e-01 -3.00104753e-03  3.59294228e-02  2.79419962e-02
  -5.57781011e-02 -4.61520068e-02 -2.20713928e-01 -9.31352824e-02
  -3.23536731e-02  6.83060847e-03  3.00063770e-02 -1.68998931e-02
  -6.24014027e-02 -1.04442360e-02 -6.10522404e-02  3.81471850e-02
  -3.29768099e-02 -1.49921980e-02 -3.44139822e-02 -6.94476441e-02
  -2.49180403e-02 -4.00363840e-02  9.41433664e-03 -9.17192176e-02]
 [ 1.39586590e-02  6.14161976e-02  3.38422433e-02  2.84250788e-02
  -1.18418910e-01  1.74844228e-02  1.27746658e-02 -5.83281144e-02
   9.89603903e-03  7.95188844e-02 -2.81780232e-02 -4.29113097e-02
  -1.03439540e-02 -1.63571071e-02  9.29872692e-03 -8.26359354e-03
   8.33073910e-03 -4.65565883e-02  1.25729814e-02 -7.67532885e-02
  -5.87209575e-02 -6.85794353e-02  3.12155098e-01 -2.30251774e-02
  -3.53720039e-04 -6.80221394e-02  1.54086351e-01 -5.95719144e-02
  -7.99394920e-02  1.27686269e-03  2.83910520e-02 -4.71217707e-02
  -1.43817412e-02 -6.45715520e-02 -7.40564317e-02  2.69512516e-02
  -7.18778148e-02  4.72967029e-02 -7.87367672e-02 -6.28657266e-02
   4.83857580e-02 -1.49217723e-02 -1.75179336e-02 -3.42180431e-02
  -4.41651717e-02  4.19062981e-03 -3.38430181e-02 -1.28039569e-01
   1.11606997e-03 -5.46860024e-02 -3.13362107e-02  6.40792772e-02
   2.99723968e-02 -2.53742728e-02 -1.11973077e-01  7.03782961e-02
   3.99518490e-01 -5.89276701e-02 -5.35894223e-02  4.81028259e-02
   1.61963448e-01  1.56456623e-02  1.19382860e-02 -2.73520444e-02
   1.95373446e-02  5.57884015e-03 -4.21360955e-02  1.33718345e-02
  -2.81769503e-02 -5.01757003e-02  4.92440164e-02 -8.87628570e-02
  -2.41892226e-02 -3.90534438e-02  1.57882236e-02  2.71090232e-02
  -2.42558375e-01 -2.61918660e-02 -6.69974685e-02 -3.44037376e-02
  -1.76839307e-02 -1.74115207e-02  6.60125017e-02  2.17718128e-02
   1.47370696e-01  5.92178758e-03 -6.42450154e-02 -6.24982081e-02
   3.62975746e-02  2.23673601e-02 -8.22514445e-02 -2.56841891e-02
  -3.18739302e-02 -8.85873940e-03  1.89327390e-03 -8.84675086e-02
   5.46683371e-03  2.26319935e-02 -4.58889976e-02 -8.81805345e-02
  -4.86392193e-02 -8.48932490e-02 -8.35423097e-02  1.46769884e-03
  -2.87681520e-01  6.98417500e-02  1.17900744e-01 -2.16854084e-02
   6.67682365e-02  2.49272119e-02 -3.10725719e-01 -3.47586796e-02
  -1.51889056e-01 -1.01284320e-02  5.08485585e-02 -2.43850257e-02
  -4.34051529e-02 -6.87440038e-02 -1.04796633e-01 -5.72047345e-02
  -3.10954563e-02 -3.40180583e-02 -1.29725114e-02 -2.74849236e-02
  -2.07099188e-02 -3.88540439e-02 -7.87368342e-02  7.28850253e-03]
 [ 2.25889515e-02 -2.09911708e-02  2.84698326e-03  4.25252914e-02
   2.59982273e-02 -1.10260420e-01 -9.12935510e-02  4.97193784e-02
  -1.45226140e-02  5.12918569e-02 -3.95076908e-03 -8.56803209e-02
  -3.50470059e-02 -8.03251844e-03  1.26481205e-02  4.70631197e-02
  -8.26656073e-03 -1.29282782e-02 -7.88639125e-04 -1.03325158e-01
  -8.28138962e-02  3.24557610e-02 -3.32333893e-01 -5.52244633e-02
  -1.91214830e-02 -1.03762954e-01 -2.36338943e-01 -3.36851925e-02
  -6.16207458e-02 -1.45978127e-02 -1.02877580e-02  8.85910448e-03
  -1.64987333e-02  1.00779533e-02 -2.31649373e-02 -5.04375696e-02
  -4.55676466e-02 -6.72026947e-02  2.18259655e-02  1.14903003e-02
   1.00735184e-02  3.96102061e-03 -7.47858062e-02 -1.62739940e-02
  -5.20694777e-02 -5.46449460e-02 -1.02816261e-01 -1.27606630e-01
   8.91323900e-04 -1.33309616e-02 -7.53190517e-02  2.26660855e-02
   2.86792070e-02 -3.76033001e-02  2.18535196e-02  1.17137590e-02
  -4.00663130e-02  4.03306261e-02 -1.65613480e-02  1.13757430e-02
   1.94495559e-01 -8.06352124e-02  8.64104480e-02  5.06434552e-02
   1.54827181e-02  1.77520793e-02 -2.01995927e-03 -3.66718397e-02
  -2.61704568e-02 -6.19532727e-02  4.56455573e-02  2.68641878e-02
  -8.11935663e-02 -1.53117832e-02 -8.54556337e-02 -6.93663210e-02
  -6.40293360e-02 -3.33953872e-02  7.19072483e-03  1.99796744e-02
  -6.59890547e-02 -2.11895201e-02  6.18526228e-02  4.39399574e-03
  -5.67821003e-02 -3.89729924e-02  2.21513794e-03 -9.61604267e-02
  -8.97869542e-02 -4.75803281e-05 -4.28308807e-02 -1.05297826e-01
  -8.41513202e-02 -8.23672116e-03 -6.83833957e-02  1.67847034e-02
  -6.40070364e-02 -8.18609446e-02 -7.10755214e-02 -8.42345953e-02
  -2.83759907e-02  2.48362832e-02 -8.11065882e-02  3.62155326e-02
  -7.43001699e-02 -3.50771323e-02 -6.37435168e-02 -7.81767741e-02
  -3.53556052e-02  7.24254996e-02 -8.70079622e-02  7.38540385e-03
   1.23449542e-01 -1.73717123e-02 -2.09632695e-01  9.85320564e-03
   1.06594980e-01 -9.68936905e-02 -2.12705284e-02  1.96152441e-02
   8.09059963e-02 -1.23393228e-02 -1.36426553e-01 -6.86965212e-02
   2.61510778e-02 -5.70504293e-02 -5.07566296e-02  2.02884767e-02]
 [-8.37728381e-02 -2.01132838e-02 -1.40169878e-02 -2.15235781e-02
   8.37963372e-02 -7.82787651e-02 -3.85911688e-02 -1.70888547e-02
   7.03889085e-03 -3.51232626e-02 -5.45475520e-02 -3.14981118e-02
   1.74613539e-02 -5.06790243e-02  9.36285127e-03 -4.21782322e-02
  -2.08682772e-02  1.30811306e-02 -5.91567904e-02 -7.32394028e-03
  -8.54434446e-02  5.72711462e-04 -8.27793591e-03 -3.56393605e-02
   7.86441014e-05 -5.28220721e-02  1.15756974e-01 -8.72364119e-02
   1.61887798e-02  7.31759844e-03 -4.71910499e-02  2.26718895e-02
  -5.80773763e-02  4.05745022e-03 -7.20607862e-02 -8.29946697e-02
  -4.44910415e-02  6.56734500e-03 -4.63653021e-02 -4.21678424e-02
  -5.83900250e-02  1.71852876e-02 -8.19453150e-02 -4.03183661e-02
   1.99269149e-02  3.61881517e-02 -4.55832947e-03  3.16843167e-02
   2.91024484e-02  6.45978516e-03  2.08846144e-02  1.03284242e-02
  -4.66718674e-02  3.59065868e-02 -5.37449270e-02 -1.17133155e-01
  -7.81037137e-02  4.25970517e-02  8.14026129e-03 -2.19576582e-02
  -1.73422657e-02 -1.70533191e-02 -4.18257639e-02  2.78842226e-02
  -2.17005033e-02 -6.32471591e-02 -5.19419834e-02 -2.55413409e-02
  -3.52520533e-02  2.79968921e-02 -5.72013408e-02 -7.15882033e-02
  -5.25289811e-02 -6.76088333e-02 -2.10002437e-02  8.39417521e-03
  -6.65264437e-03  7.49872578e-03 -2.04050150e-02 -9.32279974e-02
   8.30977689e-03 -3.00998264e-03  1.15139559e-01  4.45518307e-02
   8.50856453e-02 -6.36522993e-02 -3.75843444e-03 -1.99825428e-02
  -6.98812827e-02  2.10315958e-02  2.74329521e-02  2.01798100e-02
   1.34379137e-02  8.86056630e-04 -5.48440218e-02 -5.82343638e-02
  -3.78905311e-02 -3.30264159e-02 -5.68566285e-02 -1.22526269e-02
  -3.49220335e-02 -6.57654852e-02  2.35789269e-03  3.74964345e-03
  -3.11374754e-01 -4.93185828e-03 -5.71231246e-02 -6.18858933e-02
  -2.11138576e-02 -2.46116351e-02 -1.64705470e-01 -2.78521217e-02
   8.22878815e-03  6.35665283e-03  1.12516455e-01  3.00271586e-02
  -3.96878347e-02 -5.29216863e-02  2.51198635e-02 -1.66432690e-02
  -1.02363341e-01 -8.87347832e-02 -5.25605008e-02 -6.94112293e-03
   2.90467613e-03 -3.87088209e-02 -3.40233333e-02 -4.81687002e-02]
 [ 2.14688927e-02 -1.01214565e-01 -7.36820474e-02 -1.70814618e-02
  -1.90858543e-01 -1.33924037e-01 -2.02145837e-02 -5.43633439e-02
   1.79631065e-03 -2.74302274e-01 -8.81526172e-02 -2.18746928e-03
  -6.07420132e-02 -4.30626310e-02 -3.99065530e-03 -7.69989856e-05
  -7.77092651e-02  1.45122525e-03 -8.70126188e-02 -7.89660662e-02
  -9.99000669e-02 -2.15823073e-02  6.61461130e-02 -2.57419869e-02
  -5.23362402e-03 -9.91384089e-02  5.47723426e-03 -2.79887579e-02
  -5.98964579e-02 -4.33431379e-02  3.98325957e-02  1.07777053e-02
  -4.14335392e-02 -5.17575257e-02 -7.65167624e-02 -5.86417802e-02
   2.96698213e-02 -5.04656285e-02 -8.57814103e-02 -2.95326542e-02
  -2.99634710e-02  4.42628041e-02 -3.95204425e-02 -5.92169650e-02
  -5.05594686e-02 -8.71356949e-03 -4.48254384e-02 -9.51259807e-02
   5.16639873e-02 -3.30011100e-02  6.68700319e-03  5.20184003e-02
   3.25816646e-02 -2.89282221e-02 -8.92052948e-02 -1.84007421e-01
  -2.60777533e-01  1.36538725e-02  2.50608195e-02 -6.29174486e-02
  -8.45191032e-02 -1.64608043e-02  1.06426189e-02 -6.45604581e-02
  -4.64812778e-02 -2.78574936e-02 -6.40881509e-02  8.66440032e-03
   2.27101725e-02 -7.03530572e-03 -3.75714079e-02  2.20437367e-02
  -2.86120921e-02  1.18304444e-02 -1.84424132e-01 -2.15456132e-02
   8.81654248e-02 -5.37225790e-02 -1.23836761e-02 -3.06996871e-02
  -6.16611987e-02 -2.94221118e-02  4.94654151e-03 -1.67699218e-01
   1.78946376e-01 -7.16712996e-02  3.86519264e-03 -8.53889436e-02
   1.98509134e-02  1.66609157e-02 -4.45071086e-02 -1.06617227e-01
   3.20151746e-02 -3.94295994e-03 -4.72396649e-02 -3.42967063e-02
   1.98852047e-02 -8.87377039e-02  9.35162138e-03 -1.43998545e-02
   1.20443315e-03 -2.21536886e-02 -8.37696344e-02  1.28411790e-02
  -1.59756899e-01 -2.65828837e-02 -9.46024656e-02 -1.54618360e-02
  -5.66413440e-02 -8.05101618e-02 -3.07251811e-01 -2.61319168e-02
  -4.01303507e-02  6.68975350e-04  1.27380323e-02  3.98222357e-03
   9.00912657e-03 -2.45459694e-02  1.02683194e-02 -5.83662093e-02
  -1.63698554e-01 -7.34141618e-02 -7.04637542e-02  2.26885118e-02
  -2.87627913e-02 -7.55046755e-02 -1.52281104e-02  3.29684205e-02]
 [ 4.43296973e-03 -2.92224321e-03  3.87188755e-02  1.12757005e-03
  -2.41977889e-02  7.37237856e-02  1.09598199e-02 -8.42227426e-04
  -7.04080537e-02 -1.38210699e-01  3.67330853e-03 -6.53753877e-02
  -6.32825941e-02 -6.78851977e-02  3.93135287e-03 -2.83695944e-02
  -9.11829919e-02 -1.94312388e-03 -4.98753302e-02 -5.64660281e-02
  -2.69484110e-02 -3.40569317e-02  1.83885302e-02 -3.86897400e-02
   1.49133997e-02  2.68932618e-02 -2.51691435e-02 -5.90773113e-02
  -3.25943865e-02 -9.37126279e-02  2.79342644e-02 -2.92497706e-02
  -5.54665737e-02 -2.40591285e-03 -4.73948009e-02 -1.79626215e-02
  -2.82605868e-02 -6.47119209e-02 -5.56263849e-02  1.50426999e-02
   2.24929769e-02  1.94882136e-02 -9.01041180e-02 -5.96222803e-02
  -5.07682189e-02  1.78122912e-02 -9.06174928e-02 -1.17415395e-02
  -9.47199911e-02  2.58481763e-02 -6.74406067e-02 -9.31846094e-04
  -3.69024952e-03 -2.51387656e-02  3.32334079e-02 -2.47643068e-01
  -1.92503318e-01 -1.48778195e-02 -2.08138442e-03 -4.24370803e-02
   7.60225877e-02 -8.25830027e-02 -7.33684236e-03 -2.49983128e-02
  -5.41852154e-02 -9.72332619e-03 -2.74741706e-02 -3.18198092e-02
  -6.94298605e-03 -2.18891986e-02 -2.12780964e-02 -1.64333079e-02
   5.24768978e-02 -6.65338635e-02  5.21128401e-02 -5.81131019e-02
  -8.59970972e-02  1.47522027e-02 -2.91095302e-02 -5.19893970e-03
   5.09841777e-02 -3.05262711e-02 -2.81073153e-02 -2.24634409e-01
   1.79600343e-01 -6.70093074e-02 -3.36416289e-02  3.25935218e-03
  -8.84466916e-02  1.02566220e-02 -2.69502196e-02 -6.49543032e-02
  -7.13827759e-02 -3.80115323e-02 -4.58967648e-02  8.65667965e-03
   1.26162143e-02 -6.87041208e-02 -5.81392273e-02 -4.26516756e-02
   2.62270123e-02 -9.14326832e-02 -2.71464493e-02  3.02821547e-02
  -1.51240721e-01 -4.06175144e-02 -7.24128857e-02 -2.96925623e-02
   1.23066641e-02  1.81825948e-03  2.76749313e-01 -6.19046614e-02
  -9.69135091e-02  4.88412613e-03 -1.44586146e-01 -8.66232067e-02
  -3.33214775e-02 -8.20065811e-02 -8.61968026e-02  2.25557256e-02
  -1.45784989e-01 -3.16800624e-02 -1.09065607e-01 -3.13721336e-02
  -4.41422826e-03 -6.48474395e-02 -8.33877027e-02 -6.26183376e-02]
 [-4.00544591e-02 -4.08863947e-02 -9.36756283e-03 -7.03895539e-02
  -5.04793972e-02  7.89619982e-03 -2.85957735e-02 -4.03381092e-03
  -7.05472529e-02 -1.75012916e-01  5.63556328e-02 -4.42688316e-02
  -8.23319145e-03  2.55890638e-02 -1.73930414e-02 -1.88878644e-02
  -5.80397360e-02 -7.30228648e-02 -1.48358205e-02 -7.80050978e-02
  -2.63364762e-02  2.60843132e-02 -1.80548877e-02 -1.23194214e-02
   1.99248437e-02 -6.75930008e-02 -5.05473986e-02 -8.97574797e-03
  -2.84039546e-02 -9.22024697e-02 -4.73194662e-03 -2.69025136e-02
  -7.59617463e-02 -8.83989260e-02 -3.46389078e-02 -1.01026781e-01
  -6.48934320e-02 -7.32911304e-02 -6.82312995e-02  3.51398960e-02
  -3.66687030e-02 -3.73902395e-02 -5.38800471e-02  2.25523300e-02
  -5.20918258e-02 -4.01614495e-02 -6.18578754e-02  7.39481254e-03
  -9.88418236e-02  3.21493968e-02  1.38282059e-02  1.09200859e-02
  -9.01418999e-02 -3.45242210e-02 -1.66297965e-02  3.61678749e-01
   8.89244769e-03  4.26674560e-02 -8.50458667e-02 -3.57594178e-03
  -8.01773965e-02 -1.72925591e-02 -1.42483357e-02  2.99349111e-02
   1.19798239e-02 -9.07564163e-02 -8.29411224e-02 -1.97043642e-02
  -4.25673574e-02 -6.36663437e-02 -2.44836472e-02 -5.07234270e-03
   2.02592760e-02 -6.54334128e-02 -2.78748006e-01 -5.34864366e-02
  -9.50333029e-02 -5.23640662e-02 -2.29413211e-02 -6.20180406e-02
  -1.09358244e-02 -8.76976699e-02 -2.34813228e-01 -9.73689035e-02
   1.25091858e-02 -7.00853243e-02 -3.05567291e-02 -1.70517359e-02
  -7.61640165e-03 -2.81647709e-03 -8.74470100e-02  1.13561125e-02
  -3.55225652e-02  3.25302873e-03 -2.98654772e-02 -7.99239576e-02
  -4.39082161e-02 -7.28834793e-02 -6.47508726e-02 -7.17545524e-02
  -2.40980205e-03 -3.77626196e-02  1.16173597e-02 -7.45969638e-03
  -2.11542360e-02 -2.64877025e-02 -2.09463850e-01 -5.88377640e-02
  -3.57600823e-02 -7.92545360e-03 -9.36452150e-02 -1.04091063e-01
   8.10973793e-02  4.96561043e-02 -1.46760032e-01 -8.78968760e-02
  -4.40600924e-02  1.22708026e-02 -4.65740412e-02 -4.75524105e-02
   1.15296571e-03  4.68338653e-03  1.00842558e-01 -8.25704262e-02
  -5.40467165e-02  2.29373481e-02 -5.78749888e-02 -6.13706633e-02]
 [-1.91580001e-02  1.41226333e-02 -2.31288020e-02 -4.31550592e-02
  -5.47549389e-02 -3.03837601e-02 -6.13143779e-02 -2.68715024e-02
  -5.78143857e-02  5.88894822e-02 -3.55090201e-02 -5.43260574e-02
  -8.29120278e-02 -1.70755386e-02 -4.82960306e-02 -2.61596013e-02
   2.35935189e-02 -5.17293578e-03  3.63869332e-02  2.00949237e-03
  -5.86295426e-02  3.10502406e-02  1.36588678e-01 -5.06585352e-02
  -8.45448449e-02 -9.04389024e-02  2.24166259e-01 -8.70095342e-02
  -6.03001267e-02  1.30542798e-03 -3.76397371e-02 -4.76230383e-02
   9.43367928e-03 -4.57504056e-02 -1.00715701e-02  7.06068613e-03
   1.02227051e-02 -7.46316165e-02 -3.56693529e-02  1.52503168e-02
  -1.56726185e-02  7.02027883e-03  1.52551113e-02 -4.77960287e-03
  -8.95572826e-03 -1.24757346e-02 -6.09347895e-02 -3.39606451e-03
  -1.87040959e-02 -6.35438934e-02  8.78039841e-03 -2.77686794e-03
   4.08317707e-02  5.50920069e-02 -7.91923404e-02  8.11867118e-02
   1.67849883e-01 -1.91058442e-02 -1.21735465e-02  8.26640520e-03
   8.71439651e-03 -9.59633365e-02 -4.02314775e-02  2.20979862e-02
  -9.19356942e-03 -1.78671274e-02 -7.96541870e-02 -6.61904141e-02
   7.06793566e-04 -3.68502773e-02 -2.98249014e-02 -4.15441245e-02
  -6.10260405e-02 -4.09290893e-04 -9.46767405e-02 -5.32010905e-02
  -5.80371737e-01  2.85590021e-03 -1.68491732e-02 -8.38453397e-02
   2.84097753e-02 -4.69651073e-02  1.26109913e-01  5.47233447e-02
   2.18945682e-01  8.24620388e-03 -5.87068014e-02 -6.28203005e-02
  -3.11315693e-02 -7.97428750e-03 -8.91747791e-03 -8.41541961e-02
  -4.35376959e-03 -2.85381805e-02 -3.01359221e-02 -5.94432764e-02
  -4.97537702e-02 -4.26992401e-03 -2.78465496e-03 -4.06093672e-02
   5.00795664e-03 -7.72308856e-02 -1.66649632e-02 -4.49083298e-02
  -1.09698437e-02  1.22883180e-02  1.16903029e-01 -2.85410006e-02
   5.46543673e-02  1.17233368e-02 -1.83862135e-01 -3.57448645e-02
   9.84673649e-02 -2.26854030e-02 -4.07060385e-02 -8.68221596e-02
   1.49687734e-02 -6.59560487e-02 -8.40328485e-02 -5.87503277e-02
  -1.60391524e-01 -3.41159441e-02 -1.58243388e-01 -3.54240611e-02
  -5.26502058e-02 -3.05070616e-02 -4.19122241e-02 -9.88742337e-02]
 [ 2.31432822e-02 -6.99510276e-02  4.94112037e-02  6.35962859e-02
   1.19477913e-01 -1.47815078e-01 -6.03655912e-02 -2.96876933e-02
  -7.12439697e-03  2.41918322e-02 -6.93482608e-02 -6.26891702e-02
  -6.95624650e-02 -1.82137936e-02  5.15297800e-03  4.65136543e-02
  -9.02639776e-02 -7.37079233e-02  6.80696080e-03 -5.00277169e-02
  -2.61657983e-02 -3.55534963e-02 -2.69446373e-01  7.90009648e-03
  -1.48477191e-02  1.41129112e-02 -6.24631755e-02  7.91472942e-03
  -6.61581233e-02 -6.02234006e-02  8.14290121e-02 -6.50811344e-02
  -1.84013136e-02 -5.72926886e-02  2.76636351e-02 -5.95063940e-02
   2.75150631e-02 -5.09835489e-04 -8.76207352e-02 -4.39651348e-02
  -3.55459861e-02 -2.39198226e-02 -2.89849620e-02 -3.68389748e-02
   6.00140728e-03  4.48000394e-02 -4.58936766e-02  4.85004485e-02
  -3.67599726e-02 -8.72609541e-02 -8.51278193e-03 -4.06106003e-02
   4.50105406e-02 -3.51692695e-04  1.85946599e-02 -5.53971604e-02
   6.59752190e-02 -6.45964872e-03 -8.96387920e-02 -6.33564070e-02
   6.91628084e-02 -2.05523483e-02  4.71152849e-02  1.70056727e-02
  -2.11561434e-02 -2.34850161e-02 -3.35489400e-02 -3.02642561e-03
  -1.75535157e-02 -6.07547350e-02 -2.70270370e-02 -1.42728444e-02
  -9.80929807e-02 -8.61620009e-02 -2.04834379e-02 -9.03886277e-03
  -2.19359789e-02 -6.50502667e-02 -2.08604895e-02 -6.46047294e-02
  -7.10555119e-03 -8.84645954e-02  1.50664439e-02  8.79727956e-03
  -3.17987353e-02 -1.20985601e-02 -5.88418655e-02 -5.48323244e-02
   1.72674898e-02 -3.69277713e-03  7.69862607e-02 -7.04896403e-03
  -6.78831805e-03 -3.88635090e-03 -5.54483756e-02  8.47985689e-03
  -1.81488786e-02 -2.79052183e-03 -3.48904245e-02 -5.64824964e-04
  -7.46230595e-03  1.47287585e-02 -5.83610050e-02 -5.76403812e-02
  -2.50193700e-02 -8.65795240e-02 -1.93493530e-01  5.41544892e-02
  -3.27583067e-02  2.15243157e-02 -5.16190678e-02 -1.38046686e-03
  -6.43919921e-03 -7.65176266e-02  4.69622053e-02 -5.46703897e-02
  -2.85441186e-02  5.55295348e-02 -6.25789445e-03 -8.65049139e-02
  -1.21205583e-01 -4.59352806e-02 -1.59387030e-02  2.10183747e-02
   2.84385439e-02 -7.80321807e-02  7.93803297e-03  3.44812162e-02]
 [ 2.83445278e-03 -1.04422145e-01 -6.88208640e-02  3.92331071e-02
   4.87369746e-02 -1.07168816e-01 -6.41300529e-02 -2.51634046e-02
   4.99021448e-03 -5.50421402e-02 -1.47543673e-03 -7.22843111e-02
  -1.31710032e-02 -1.06694676e-01 -1.46153802e-02 -2.33436450e-02
   6.14224747e-03 -6.39441684e-02 -5.21899052e-02 -5.29332496e-02
  -1.95235610e-02 -5.11680283e-02 -1.99927632e-02  1.52398553e-02
  -4.27889265e-02 -9.27887633e-02 -7.72634894e-02 -1.79132521e-02
  -1.20521747e-02 -9.00404006e-02 -7.70468339e-02 -8.85924418e-03
  -3.33658196e-02 -8.46421625e-03 -7.71664754e-02  7.97574781e-03
  -4.49601710e-02 -5.18941917e-02  1.77936535e-02 -7.33637661e-02
  -3.05296425e-02  3.07578184e-02 -4.11948971e-02 -8.55729580e-02
  -3.71238142e-02 -3.45150307e-02 -4.58785333e-02 -5.12336418e-02
  -7.28561208e-02 -4.98823822e-02  3.61160841e-03  1.80659182e-02
   3.81096937e-02 -4.38947044e-02 -8.58903676e-02  1.79903544e-02
  -1.90500587e-01 -3.64205390e-02 -7.25241005e-02  2.87133222e-03
   2.03493550e-01 -3.01408358e-02 -1.11525811e-01  3.00474465e-02
  -5.79864122e-02  3.00976876e-02 -9.76025388e-02 -1.88099314e-03
  -5.54491431e-02 -8.18044543e-02  2.42364244e-03 -5.76185212e-02
  -1.98194999e-02 -6.05113097e-02  9.69278291e-02 -3.75414127e-03
  -1.82671919e-01  3.35199796e-02 -3.27295735e-02  1.76127106e-02
  -3.10615804e-02 -5.31427413e-02  3.94639224e-02  7.61293620e-03
  -6.03402071e-02 -6.02360927e-02  7.39362976e-03 -5.87020181e-02
  -8.77104551e-02  1.68480594e-02 -7.55878314e-02 -3.61898504e-02
   7.96356499e-02 -6.11742474e-02 -5.23809493e-02 -2.17541512e-02
  -7.93161690e-02  3.56826968e-05 -6.98803142e-02 -4.55943160e-02
   4.13588434e-02 -9.55928862e-02  1.28803561e-02 -2.62230858e-02
  -1.56796843e-01 -3.00931209e-03 -3.70945595e-02  3.04950424e-03
  -5.54530807e-02 -1.98693220e-02 -5.00732139e-02 -2.46970151e-02
   3.50921648e-04 -3.09423432e-02  8.63633081e-02  1.15293227e-02
   2.40652133e-02 -6.86503649e-02  1.66869685e-02  2.26392061e-03
  -2.33375594e-01  1.86744649e-02 -9.73828062e-02  2.70065069e-02
  -1.01978280e-01  2.05765422e-02 -5.98465838e-02 -2.23131441e-02]
 [-4.74656336e-02  1.10177854e-02 -5.21855652e-02 -1.09689892e-03
  -1.01978011e-01 -2.07398370e-01 -8.77315179e-02  5.74188568e-02
  -3.19857858e-02 -2.10356474e-01 -8.90067220e-02 -6.80716410e-02
  -2.36174725e-02 -1.52589232e-01 -1.43979192e-02 -1.63835462e-03
  -7.64274821e-02 -2.41320804e-02 -9.10227373e-03 -1.18413642e-01
   7.76360109e-02 -1.56772379e-02  4.69902195e-02  8.73181969e-03
  -6.69556409e-02 -7.13020889e-03  1.94609731e-01  6.69375807e-03
   1.71910189e-02  1.35567533e-02 -4.54352088e-02 -8.50858539e-02
  -3.87801565e-02 -6.18828833e-02 -4.46877107e-02 -5.20896614e-02
  -3.78666297e-02 -2.84167603e-02 -5.37494048e-02 -6.90255314e-03
   2.10431367e-02 -3.07397451e-02 -6.27000853e-02 -2.76655722e-02
  -1.99799053e-02 -1.84107367e-02 -3.93739603e-02 -5.52029870e-02
   2.43248092e-03  1.67711433e-02  2.28610225e-02 -1.68116726e-02
  -6.02817759e-02  2.15843506e-02 -3.98880392e-02  5.58984466e-04
  -3.53100263e-02 -3.87374163e-02 -3.57647352e-02 -6.89268932e-02
  -2.90580839e-02  1.73587240e-02 -4.75146025e-02  2.82843458e-03
   9.62011050e-03  4.16109748e-02 -5.33067286e-02 -4.57332693e-02
  -4.84055141e-03 -4.53426642e-03 -3.67911831e-02 -3.62125337e-02
  -2.05312409e-02 -5.30297644e-02 -1.56939521e-01 -2.59569380e-02
   2.41654627e-02 -2.03403570e-02  6.42992090e-03 -6.22928739e-02
